130 128
and 0.0005359532 0.0021322481 0.0004111315 0.00014879207 0.001891999 0.0018189625 0.0034588596 0.0016943708 0.001390861 0.0035196978 -0.00038859376 -0.0013910001 -0.0037637604 -0.0012865571 0.00010144227 0.0029998436 0.0019561464 -0.0017518266 -0.00012964266 0.0009891706 0.0017361105 0.0032145972 -0.00083830085 0.0031869335 -0.0025490294 -0.00035676084 -0.0023475508 0.001787761 -0.0037137042 -0.0036465544 0.0027292075 0.0029082696 -0.0025476937 0.002947516 0.0035112402 0.00045612062 0.002466405 0.004061926 0.003653196 -0.002689707 0.0021285687 0.0009302885 0.0016596011 -0.0010655348 -0.0019965584 0.0026963349 0.003507508 0.0036048763 0.0029202905 0.003606937 0.0031423818 -0.0016524226 -0.0029416948 0.00095077354 -0.0012921091 0.003195293 -0.00013986364 -0.002208559 -0.0032848094 -0.0022620084 0.0009218834 0.002353735 -0.00019517138 0.0012168766 0.001158246 -0.002088083 -0.004169732 0.0033635772 0.003444536 -0.0038943696 0.0014874643 0.0029564505 0.0012123736 -0.0038389647 -0.0009105203 -0.0036229158 -0.0042892266 0.0026757286 -0.00066534657 -0.00061645306 -0.00029688774 0.0007334347 -8.436402e-06 -0.0023810135 0.0007498412 0.0017434548 0.00025931344 -0.00079844723 0.0032439895 0.0035691273 -0.003419554 0.0035379427 -0.003908982 0.0029038745 0.002282045 -0.00074642757 -0.0023995514 0.0018546904 0.0016034784 -0.0009687685 -1.3431989e-05 0.00060509745 -0.0006107162 -0.0016193677 0.0020219737 -0.0015592993 0.0001859714 0.0005938057 -0.0033014908 -0.0036294751 -0.0031093068 -0.001281896 0.0017851223 0.0029654356 -0.003485903 0.0009878394 -0.0010707239 -6.6253095e-05 0.0034227003 -8.429663e-05 -0.0017957987 -0.0027778556 0.0007373911 -0.000974836 0.0012306441 -0.0021176105 0.00025763965 0.0034216852
for 0.0015746463 -0.003184905 0.0017705772 0.002478378 -0.0022996853 -0.0022218074 0.00051079213 0.0007977893 0.003603703 0.0023019528 -0.001817925 -0.0044019306 -0.001591684 0.0005453019 -0.0010225752 -0.0024601903 -0.002443138 0.00090955605 0.0031819548 -0.001932001 -0.0021892902 0.0010671385 -0.0018404437 0.004021271 -0.0033485014 -0.000578146 -0.0029385595 0.0019360813 -0.00411101 0.0010607011 0.0032134103 0.0014415387 -0.0015752458 0.0003873811 -0.0012686087 0.0005234963 0.0031175243 -0.0025660798 -0.0019351228 -0.0033196756 -0.0023522514 0.0039741383 -0.0030930366 0.00062484416 0.0024144189 -0.002733831 -0.0015578062 -0.0022046466 -0.0016055491 0.0030690767 -0.0030793292 0.00385844 -8.789996e-05 0.0018329746 -0.0028709983 -0.00024294356 0.00022189884 0.000475892 0.003233179 -0.0024534278 0.0007205814 0.0020021466 0.0007394929 0.00055188435 0.0031974134 0.0018982749 -0.0020318313 0.0026634692 0.004779024 0.0013124481 -0.0042137564 0.003126163 0.0014688512 0.002280231 -0.001062115 -0.0015463929 -0.0010957373 0.0013008139 -0.00023599833 -0.0030004452 0.0023219076 0.000626911 0.0001316441 0.0020658257 0.00058943074 0.0009839195 -0.0022722548 0.0017941953 0.0039859554 -0.002318123 0.0019027587 -0.0034959083 0.00013623272 -0.00415853 -0.00029399045 0.002936006 0.0031975277 0.0024803833 -0.0010888807 0.00450809 -0.0021525342 -0.0025708736 -0.0005552492 -0.0027918145 -0.0014409403 -0.0009919034 -0.0018512518 0.0023560652 -0.003600354 -0.002936118 0.003873063 0.0013927999 0.0029797696 -0.0019115258 0.0010636786 0.0027199383 -0.0010528101 0.0039168834 0.0021086123 0.0037860093 -1.94238e-05 0.003155253 -0.0006229775 0.00097590714 -0.0013339209 0.003469948 -0.0013628767 -0.003897797
X.509 0.0022421286 -0.00041518256 -0.0005414628 0.003904073 0.0012595961 0.0021434533 0.0015534684 0.0012998682 -0.0019619302 -0.00067057856 -0.00048380022 -0.0022705237 0.001085114 0.0027272396 -0.0037162092 0.003509232 0.0029119905 -0.0033587979 -0.0022356755 0.0031308325 -0.0009830644 0.0026180658 -0.0015423503 0.0034554475 -0.0027740572 0.0022921718 -0.0028127732 0.0021924016 0.0011212762 -0.0008020322 0.003083836 -0.0019552812 0.0005664132 0.00018861936 -0.0026936317 0.001421635 -0.001587316 -0.00016714848 0.0013093752 0.003205349 0.0023262193 0.004043511 0.002124272 -0.0032708256 -0.00094922446 -0.0006423373 0.0013578609 0.003437781 0.0012174734 -0.00018174098 0.0029910796 0.003319368 0.001237192 -0.002514201 0.00094112626 -0.0020820345 -0.0030268384 -0.00014376605 0.0033712564 -0.002351618 0.0040194173 -0.0015544882 0.00012723538 -0.0004638524 0.0026234274 0.00210989 -0.002810558 -0.0007220331 0.0032543333 -0.0043463204 3.8544345e-05 0.0024969433 -0.0038737732 -0.0027389887 -0.00316729 -7.8254525e-05 -0.0029847536 0.0020665366 0.00023158708 0.0016126675 -0.00434539 0.00027189177 -0.0026317148 -0.00087299023 -0.0020343207 -0.00025748342 0.0008287892 0.0015531458 -0.00011681706 0.0017300689 -0.0004044099 -0.0026733829 -0.003902061 0.0035455888 -5.751179e-05 0.00062623824 -0.0023053582 -0.0002914584 0.0030966778 -0.00047760142 -0.0033206632 -0.0010705576 0.00048886734 0.0024095813 0.00061098684 -0.00021028993 -0.0012216737 0.0039602173 -0.0006110237 0.002309696 -0.0010955925 -0.000103001235 0.002272884 -0.0014089296 -0.00022742167 -0.0014565962 -0.0037327663 0.0010551767 -0.0027231427 0.0011425304 -8.667011e-05 0.0036786222 1.710228e-05 0.0026280764 -0.00024480352 0.0019601919 -0.001313815 -0.003504465
of 0.0042375545 -0.002863608 -0.0018645311 -0.00067242957 -0.0010012739 -0.0017537083 0.0038145008 6.927046e-05 -0.0010120902 -0.0020642558 -0.00058829365 -0.0030939588 -0.0026313413 0.0027391177 -0.0019211088 0.00022528412 -0.002707299 -0.0015033942 -0.0009040258 0.0025121958 -0.002869909 0.0016370543 -0.002847087 0.0011969351 -0.00017291469 -0.0019644853 -0.00030807965 -0.000120127566 -0.0019742132 0.0009927065 -0.0034128528 0.004242949 -0.0018908122 -0.0009027262 5.0201616e-05 0.001444112 0.0014913399 0.0037634964 0.0018649244 -0.0020495348 -0.0028762536 0.0014731877 0.001298167 -0.0048991716 -0.0026043388 -0.00029118732 7.774291e-05 0.0015703996 0.004489925 -0.00037496974 0.0009384214 0.003850228 -0.0011813785 -0.0048702927 -0.0015793254 -0.0028707127 -0.0048322505 -0.0021175295 -0.0032070146 0.0012107586 0.0017384037 -0.001904986 0.002709836 -0.0009947697 0.001598397 -0.003507613 -0.0013003272 0.0013912455 0.00031905185 0.0011840652 -0.003336579 0.003940313 0.0030751962 -0.004043453 0.0029557534 -0.00030015403 -0.0012488929 0.00042566087 -0.0023358127 0.004082233 -0.0037041847 -0.0016563367 0.0037488097 -0.0026669693 -0.00057118665 -0.0020425688 -0.0016131251 -0.0035239581 0.005324846 -0.0019843052 -0.00406857 -0.0021273852 -0.0021927857 0.0018783142 -0.0039530713 0.0015220103 0.002197396 0.0025998747 0.001648243 0.0034897458 0.0020195863 0.00013496344 0.0033535217 0.0012426256 -0.002173737 -0.0010230256 -0.0015501485 0.0019486509 -0.0041106595 -0.00018769111 0.0019323726 -0.0012284736 -0.0006576155 -0.003710716 -0.001707776 0.0004953301 -0.0013325772 -0.00041739852 0.0034460216 0.0039295303 0.004029607 -0.0009576054 -0.0010268587 -0.0030455627 -0.0023111296 0.0033197838 0.0017846759 -0.0009581159
Certificate -0.0028386142 0.0033429181 -0.0003365863 0.0033304477 0.0027443306 0.0017515204 -0.002857075 -0.0039145607 -0.0016926158 0.0035852168 0.002622194 -0.0044259443 0.0024819523 0.0028803563 -0.00057057873 -0.0002567828 -0.00019495386 0.003965442 0.002307234 -0.0028319953 -0.0014698273 0.0025377607 0.0008577095 0.0031390334 -9.303331e-05 -0.0028050924 0.00030385077 0.00027222116 -0.0014972789 0.00020439824 0.002321857 0.0021173402 -0.0011575434 -0.0015055953 -0.00093010685 0.0026147126 -0.0030614657 -0.0008360954 0.0038932946 0.00019149056 0.0028472415 -0.0026387873 0.00068540114 -0.0016061693 -0.0018469032 0.0035200287 -0.0026764777 0.001475485 0.001849482 -5.1633695e-05 0.0012814701 0.0033699824 0.0020904022 -0.0008982071 0.0012505256 0.0009866187 -0.0015966144 0.0030170926 0.0010413815 -0.00035373025 0.0028610209 -0.0010017692 -0.00072431215 -0.0022064927 -0.0038559607 0.0028302823 -0.0041695028 0.0031005973 -0.00049405044 -0.00477244 -0.002728123 0.00054949766 0.003620772 -0.0027679484 -0.0026765396 -0.0032958041 0.0003173494 0.0004339775 0.003706721 -0.00094613765 -0.003360383 0.0029666591 0.0010903922 0.0029481626 -0.0013526189 0.0029596803 -0.0031766326 -0.00019299444 0.004263588 -0.0036185083 -0.0008563583 0.0017009124 -0.003339434 0.0025333543 0.0025466597 -0.003327101 -0.00013589747 0.004122223 -0.0017195728 0.0027963256 -0.0007421721 -0.0017340041 0.0035711357 0.001742117 -0.00018771504 0.0018908969 -0.0019201055 -0.000889783 -0.0027062313 -0.00025213332 -0.0005837518 0.0018066325 0.0016418209 0.0029876973 4.829066e-05 -0.00012685919 0.0005815146 -0.003214345 0.0037779459 -0.002882202 0.0030738818 0.0037985835 -0.0035949082 -0.0024089438 0.0029162879 0.0041746534 0.00013214475 -0.0032340828
classes 0.003075073 0.0032178073 2.5397725e-05 0.0010725922 -0.0047694817 -0.0019893206 -0.0017468557 -0.0026323397 -0.0014417139 -0.0038906077 -0.00080842996 -0.0039793374 0.0032064463 0.002354378 0.0034107608 -0.00095921854 -0.0011885995 0.0026738367 -0.00023700713 0.0029763354 0.0004955015 0.0014410419 -0.0031897728 0.0032626884 -0.0008487985 0.0040415875 0.0019043111 7.909104e-05 -0.0039146696 0.0014271281 -0.0013583418 0.00069291104 -0.000639127 0.00094709854 0.001253689 0.003321868 -0.0025494394 0.0007896815 -0.00019449698 0.0025200294 -0.0039330362 0.0030023921 0.0014592627 0.0017035551 -0.0032938547 -0.0035068952 -0.0026922985 0.0010909168 -0.001840342 -0.0019256161 -0.00103351 0.0033341018 6.693702e-05 -7.45303e-05 -0.003667399 0.003407748 -0.004091602 -0.001106739 -0.0019705603 0.0005895872 -0.0015940968 0.002540755 -0.002112861 -3.5796078e-05 0.0012112152 0.0007826131 -0.0021384975 -0.0010640628 0.00020006909 0.0013350961 -0.00066565594 0.0029242733 0.001473455 0.0013580869 0.0040378184 -0.0044548437 -0.00011435343 -0.00090467936 -9.909871e-05 0.00043665254 -0.0014006783 0.0033079227 5.617916e-05 0.001929681 -0.0020375627 -0.0022534824 -0.0018802447 -0.0036339355 0.000922468 0.000326154 0.0016602984 0.00060305017 -0.0011606517 -0.00084921817 0.0011725791 0.0011404403 0.002370283 0.0017172414 -0.00039645325 0.0008627329 0.001964705 0.0002839875 0.0011383514 -0.0012168774 -0.0016056538 -0.0018921505 0.0003350579 0.0023030825 -0.003526944 0.0018000234 0.004455465 0.0014963386 0.0009941383 0.000298295 0.0020069822 0.004328788 -0.0017668008 -0.000998088 0.004075931 0.0027417527 -0.0003175981 0.0025552346 0.0009258527 0.0024915207 0.0010939348 0.0048859087 0.0027037535 0.0023057943
Java™ -0.0036111742 -0.0032415914 7.811115e-05 -0.0017036169 0.0021146764 -0.0019240127 0.00083155796 -0.0025128364 0.0013462373 0.0017812902 0.0011832893 -0.0021744873 0.0037290545 -0.0026983363 -0.0022261497 0.000721577 0.00018656033 -0.0008826495 0.0015084428 0.0028644688 -0.00090785825 0.0007547847 -0.0029214094 -0.003249743 -0.0040442343 0.0012333015 0.00029562428 -0.0010395597 0.0031009936 0.0027226207 -0.0037456546 0.0028160075 -0.00053780514 -0.0009717312 -0.0037305274 0.0008709672 -0.0023642196 -0.002342348 -0.0010573218 -0.0032456962 -0.00053969154 -0.00026822928 -0.0034363412 -0.0025177144 0.003549132 0.0023950262 -0.0018538133 0.00018788424 -0.0013970138 -0.0025805817 0.0011323412 -0.0030667935 0.00036111128 -0.0034714434 -0.0032171684 -0.0017835704 -0.003336234 0.0030359952 -0.002457292 0.0019561157 0.0018966151 -0.0006529267 -0.0024242657 -0.0002877452 -0.002529447 -0.0014547914 -0.0011800141 0.0008424009 -0.0026810046 0.0007902019 0.0031112162 0.0015348494 -0.001010264 0.000899896 0.0033678978 0.0025755658 -0.00077258504 0.002648865 -0.002313397 0.0017972988 -0.003494688 -0.0007133232 0.00021120676 0.0030140192 -0.0020037037 0.0026654825 -0.0038630744 0.0023137112 0.0035002416 0.0030834784 0.0019950517 -0.0017604408 0.0008920974 0.0024180608 -0.0018086741 -0.0012285741 0.003709571 0.00044608678 0.00059191394 -0.001934739 -0.0009931502 0.00031020667 -0.0017731825 0.0005893194 -0.0039697443 -0.0012637532 -0.001286273 -0.0006308176 0.0028666107 0.0025085232 0.003654903 -0.00332429 0.00041097452 0.00042048094 -0.0012145431 -0.002128858 0.00018212425 0.0005454415 -0.0025124047 -0.0018309978 0.0035972279 0.0032839763 0.0008688176 -0.0038087596 0.0009432347 0.0015123965 0.0024036856 0.0034950664
Classes 0.00057317415 -0.00029334662 0.002033746 -0.0022187182 -0.0044004684 0.0008554634 0.00042129733 -0.002733431 -0.0027533162 0.0011112606 -0.0010687911 -0.00441477 -0.00087845925 -0.0001648521 -0.0019571397 0.0016345191 -0.0010189316 -0.0023152595 0.0018456028 -0.0010180995 0.0019375123 -0.0010228249 0.0011898079 0.0011617523 -0.0028422757 0.0032732764 -0.001614158 -0.00018169118 0.0031520603 -0.0023935316 0.001328171 0.0043028584 -0.002300052 0.0005890057 0.00280795 0.001665925 0.0023722053 -0.0027861842 -0.0032558078 0.0007006795 -0.0024088856 -0.002949387 -0.0009735871 -0.004321403 0.0036434568 0.0019697123 0.0010917167 -0.0019647458 -0.0009700663 -0.0019924056 0.00101209 0.0023064686 -0.0031284376 -0.002231922 0.0012847141 -0.000979999 -0.0024573295 -0.0025909462 -0.0027143734 -0.0012913046 -0.0012009593 0.00018004989 0.0034761268 0.000907943 0.0021030842 0.00089285965 -0.004049478 0.0039493623 -0.0031629151 -0.003554262 -0.0023849565 0.004394492 0.0018639849 -0.00203913 0.001718082 0.0002779746 -0.0011786661 -0.0020726754 -0.00085321127 0.003068536 -0.00020733413 0.0025616065 0.0030338531 0.001228039 0.0020377878 -0.0018160606 0.003411653 -0.0023653833 0.001032524 0.0020663594 0.0024284415 -0.001126215 0.0013747611 -0.0037984822 0.0006999244 -0.00067448034 0.0004986299 0.0030798146 0.0035462088 0.00026888505 0.0031123545 -0.00048600032 0.0020878208 0.0014080931 0.002002478 -0.00027761562 0.00095050305 -0.0015976029 -0.0035762975 0.002856318 -0.0030896105 0.0008711244 0.0036012975 -0.00012687698 -0.003726982 0.004003853 -0.003487559 0.00027949482 0.0038939505 0.0037152944 0.00014601022 -0.0023971298 -0.00082158524 -0.00018502022 0.00041753115 0.0037294063 0.0031899582 0.00031106197
This 0.004405024 -0.0038092716 0.0013396692 0.0036841664 -0.0025298877 -0.0033058228 0.0010786508 -0.0015297674 0.0021438694 -0.0016982403 0.00077624945 -0.0014121896 0.0027839644 -0.0018279942 0.0030648282 -0.0017451041 -0.0015156151 -0.0030456395 -0.00080685393 0.0016139797 0.0050421217 0.0018151326 0.0014471293 0.00047096764 -0.0045231814 0.003765322 -0.005719901 0.0026474535 -0.0014896451 -0.0015042216 -0.0029497917 0.003601115 0.0026724883 0.00059088774 0.0027901465 0.000512558 -0.0016824148 -0.0005787771 -0.0011975857 -0.0024079261 -0.001304703 -0.0030346008 0.0006910781 0.00043346622 0.0004240214 0.0017015324 0.0012220643 -0.001889749 0.0022748068 -0.0030994017 -0.0010558234 0.0035867658 0.0033787836 -0.0035048567 -0.0038636283 0.0021676186 -0.0010886533 -0.0031975715 0.0035217667 -0.0027428742 -0.003852913 -0.0033520656 0.003859118 0.0045964937 -0.0008930986 -0.0005034103 -0.0030667367 -0.00089159264 0.0017079184 0.0020778135 0.0014453299 0.0037213145 -0.003472702 -0.0031594802 0.0036949723 0.0024624218 -0.00452058 0.00016901262 0.0038760782 0.002882131 -0.00035430092 0.0019998983 0.0027134467 -0.001623798 -0.0023238366 -0.00048741364 -0.0040652105 0.0030173345 0.0006709876 -0.00431942 0.00089335395 -0.000769375 0.0027807315 -1.3151917e-05 -0.0008108328 0.0015148025 -0.00021328383 0.0009954771 -0.0039691413 0.0011199912 0.003273858 0.001713344 0.0025444839 -0.0011710151 0.0005527696 0.0040539713 0.0007890448 0.0011586744 0.0016211545 -0.003347963 0.002330485 -0.0022694508 -0.0020471602 -0.0015046053 -0.00106908 0.0022616591 0.002093187 0.0025084962 0.0029895015 0.0030844768 0.0015072393 0.004449294 0.0021059008 0.0011039579 0.0021121586 0.0041854344 0.0029697316 -0.0024029592
 0.0007664637 0.0007160148 -0.0005450131 0.0014892563 -0.0008355677 -0.0004884348 0.0024193511 -0.0023177818 0.0020392886 0.0032254118 0.0019982404 -0.0013255631 -0.0023359573 -0.0034760996 -0.0013918481 -0.0016129075 -0.0031923833 0.00024014163 0.0036909042 0.0019176936 -0.001013591 0.001299592 0.0024784154 0.002439439 -0.0030658164 -0.0035135006 0.0019730458 0.0016225597 0.00059761596 -0.00037117378 0.00027593822 -0.0033138117 -0.0019425136 0.0022991055 0.003153495 8.667814e-05 -0.0038074083 0.0036193153 0.0004572618 0.00071190874 0.002533052 -0.002827967 0.00057239144 0.0023330224 -0.0023952094 0.0037328268 -0.0036986393 0.0003189478 -0.0030965814 -0.0019204397 -0.0016362718 0.00028318565 -0.0019860256 -0.002436536 -0.0029220108 -0.0018377007 -3.4384622e-05 -0.003133143 0.003999368 0.0037099945 0.0018855484 0.002251474 0.0034640606 0.0025177416 -0.0015195693 0.001296514 0.0019439607 0.0013295718 0.0035107431 -0.0022628885 -0.0010616143 0.0029873988 -0.000565648 0.0024058917 0.0012681623 -0.0030957079 0.0010655865 0.0018223721 0.0015664197 -0.0033578938 -0.00056774233 0.0034041104 0.0025388035 0.0017769284 -0.0012583435 0.0025067006 0.0024468338 -0.0032319068 0.004017484 0.0036753316 0.0004193007 0.002025303 0.0015526311 -0.0035886846 -0.0031014031 -0.0014380864 -0.0028997965 -0.0036762601 0.0033551527 0.0007936057 -0.0007185242 -0.0015030054 -0.0010203287 0.00017865573 -0.0010483654 -0.0032541223 0.0015609753 -0.0013397689 0.0035802533 0.0028398463 0.0006641871 -0.0019016186 0.0020257188 -0.0029396047 0.00020919373 -0.0037196686 0.002271598 0.002755669 0.002112557 0.00037799 0.0026525238 0.0027142204 0.002243872 -0.0009898971 -0.0005440256 -0.0013038579 0.002357449 -0.0021585885
Revocation 0.0041123554 0.0037147203 0.002776817 -0.0032548981 -0.0038595311 -0.00058992405 0.0023979917 -0.003000609 0.00033636385 0.0011949289 -0.0009134181 -0.000979647 0.0021969206 -0.0015228837 0.0035107473 0.0040337574 0.0016056316 0.0027042106 0.0020607195 0.003348212 -0.0012158082 -0.0016716077 0.0004307346 -0.0028361243 0.0013080935 -0.0019453843 -0.0030008233 0.0013233572 -1.4389105e-05 -0.0022618428 0.0003855358 -0.0018556786 0.00035845858 -0.0038163336 -0.002611213 -0.001039838 0.00014481062 -0.0028624907 0.0023957377 -0.0011057027 -0.0021338472 0.0018038048 0.0028850716 -0.0013146682 -0.0023622853 -0.00259497 0.0013389774 -0.0015682856 0.00039780122 0.0017532496 -0.0019353592 0.0008673347 -0.001415759 -0.0027139378 -0.0028340823 0.0028820832 -0.0015504853 0.0012544208 -0.0037715023 0.0035090337 0.002458765 -0.0029667723 0.0010510102 -0.0024586127 0.0029668827 0.00027184098 -0.002252006 0.0015835117 -0.002913014 -0.0018519073 0.00088499923 0.0024666202 -0.00027782464 -0.0013102631 -0.0039726286 0.0021372542 0.0016815006 -0.0017434368 8.544864e-05 0.0038282862 -0.0043514394 -0.00018335565 -0.00096331694 -0.0007974064 -0.0012123105 -0.001151266 -0.002278088 0.00092770107 0.0016078168 -0.0007089771 -0.00031102909 0.0020377175 -0.0013566623 0.0021386025 -0.0023786793 -0.0031334313 -0.00054642186 0.0010548139 -0.00011834118 -0.0023723075 -0.002320595 0.004350568 0.0020979685 -0.0025089695 0.00026618567 0.00033289267 0.0035659962 0.0037343383 -0.0038677608 0.0027358802 0.0005611948 -0.0033305832 -0.00020544464 -0.001366365 0.0037638212 -0.0021537126 0.0012724678 -0.0003414465 -0.0031301442 0.0026686613 -0.0017837962 0.004178956 0.0033292559 -0.0018768783 0.002534021 0.0032499407 -0.0010334402 0.0035295927
over 0.00033315012 -0.0022906284 -0.003949823 -0.0013206238 -0.0035968602 0.001550832 -0.00023310597 0.0027771948 -0.0018989855 -0.00081401126 -0.00062019384 -0.0031022683 -5.8328296e-05 -0.0029829582 -0.0029973907 0.0024280518 0.0014087688 0.0006202801 0.0014999444 0.001179206 0.0012465523 -0.0014509268 0.0024903817 0.0013893942 -0.0005819509 0.0013394612 -0.0014347662 -0.002600701 -0.0005486365 0.004055738 -0.0021446238 0.004589714 -0.0018190076 -0.00026819302 0.0033709558 0.0021336726 -0.0035034148 -0.0008094218 0.0005521304 -0.0035209055 -0.0012754055 -0.0026884149 0.0034408288 0.00238049 0.0034450544 0.0037824984 0.0018502381 0.0012738253 -0.00077209645 0.00039838953 -0.0033508362 0.0024434372 0.0025528974 0.0010384177 -0.0040169605 -0.003107138 0.0033089707 -0.0009941036 0.002532207 0.0026638273 -0.0038517697 -0.0014902318 -0.001025502 0.00039361985 0.00056211156 -0.0018481471 0.0012371407 0.0032030828 -0.0010754556 -0.00079918734 -0.0013423546 0.0024809386 0.0040520625 0.00046734783 0.0021655688 -0.001076458 -0.0016833892 0.00022356314 -0.00051998085 0.0027375359 -0.00043942416 -0.0032809833 -0.0010654683 -0.0032538886 0.0014430378 -0.0015054453 0.0017142771 -0.0030414853 0.002842189 -0.0013148388 5.004506e-05 -0.004252215 -0.0045326827 -0.001149216 -0.00046765595 0.0040469347 -0.0030206493 0.0020486482 0.0029740846 0.00017481962 0.00064947037 0.003921738 0.0037631292 -0.0010812326 -0.0016212194 -0.00056851923 0.0022510893 0.0028616549 -0.0013538804 -0.0017877516 -0.001589333 0.0013460757 -0.00075022865 0.0020458542 -0.0028014146 0.0029443689 -0.0014923288 0.00043598295 -0.0008947738 0.003241272 -0.00082831486 0.0047367206 -0.00037544704 -0.0021566157 -3.3523447e-05 0.00012618004 -0.0013252019 0.0013783503
internet -0.00019140077 -0.00028502455 -0.0012361286 0.0015213364 -0.002928555 -0.00189813 0.0016517008 -0.0006851707 -0.0044444674 -0.0025617976 0.0018646907 0.0028053697 -0.0022097677 -0.0009523009 -0.0025788844 0.0044779778 -0.0035016323 -0.00017299526 -0.00042356123 0.0012826254 -0.0020456756 0.0008443469 0.0015453035 0.0013887098 -0.0033493054 -0.00040388826 -0.005245094 -0.002819006 -0.0034395896 0.003912804 0.0002596655 0.0037388229 0.0010857742 -0.00047081627 -0.0028348893 -0.0038496081 -0.00059750245 0.0041584796 0.0028985909 -0.0006532891 0.0036345539 -0.0014002072 0.003954147 0.0012316449 0.0030510698 0.001512947 -0.002622777 -0.00042488988 0.0039925943 0.0032273435 -0.0013895143 0.0021316383 -0.0021757677 -0.0015328788 -0.003983474 -0.00085826096 -0.003194051 0.0020078053 -0.00310727 0.0009366965 -0.0039914604 0.0016535978 0.0039694933 0.0036619406 -0.0030648378 -0.0023980727 -0.003746847 0.0020469527 -0.000105143736 -0.0044276216 -0.0011804573 0.00012945151 0.0020420984 -0.0036729113 -0.0029708233 -0.0016929457 -0.0020788105 -0.00084496057 -0.0028724892 -0.0018872236 -0.004034846 0.0015950835 0.004292765 -0.0018184147 -0.0028084228 -0.0042915926 -0.00077268045 0.00038551659 0.0010856396 -0.00040704643 -0.0033413686 -0.0036097663 -0.001347584 -0.004379595 -0.001745058 0.0022893157 -0.0026454243 0.0037764742 -0.0030502565 0.0036242944 0.0034883486 -0.0006660769 -0.0037977474 -0.0013616951 -0.0013232772 0.0030956506 0.0028719865 0.003012969 -3.1835174e-05 0.0009567945 7.5558644e-05 -0.0036861035 -0.0004924716 -0.0035281929 -0.0001641014 -0.002046962 -0.00087231625 0.0022848712 -0.0017436283 0.00088150357 -0.0019762532 0.003031562 -0.0026622242 -0.00031922557 0.002027499 0.004153174 0.0035898644 0.0017056101
public -0.00056702335 0.0032575459 -0.003929507 0.00064729626 0.002898759 -0.002869306 -0.0025992913 0.00028916137 -0.0033173389 -0.00010618888 -0.003792874 -0.0027236824 0.00022993315 0.00042596168 0.0023114868 -0.0003805331 -0.0016186774 -0.0033020165 0.002627417 0.0034955353 0.0022002815 0.0012309416 0.002347533 -0.002848569 0.0007156197 0.0035617056 0.0018409343 0.0026699307 -0.0022398494 -0.00089655624 -0.0025382547 0.0023015842 0.0017833839 -0.0038400362 -0.0010881765 0.0030925232 -0.00061388005 0.00014315518 0.0007038059 0.00014243873 -0.0006757847 0.001168589 0.0024550674 -0.0039465874 0.0012094121 0.0034780116 -0.0020878192 0.0024536736 0.0020059906 0.0019938527 -0.0029196853 0.00056743575 0.00031607656 -0.00028333504 -0.0015549638 -1.3934381e-05 -0.003723865 -8.378181e-05 -0.0030647197 0.0018901719 0.0027766908 -0.0045637568 0.0035517518 0.0027875048 0.0035908138 -0.003101686 0.0010777593 -0.0023871239 0.0017808086 -0.0030379663 0.00041283434 0.0046969466 -0.003916088 -0.004034778 0.0006517425 -0.004025843 -0.0018865364 -0.0026408269 0.0024137525 -0.0013820276 0.0017611185 -0.0015757596 0.0014180284 -0.0018822693 0.0010512879 -0.001337824 -0.0018917265 -0.0019256857 0.0021030726 -0.0036329406 -0.0027479923 -0.0020234683 -0.0011912204 -0.0002001418 0.002872498 -0.0009923193 -0.0039767 -0.0018010825 -0.00360314 0.0018231231 -0.0003280381 -0.002744926 -0.0030985475 0.000724725 -0.0024732316 0.0042961338 0.0003766907 0.0041507827 -0.003569377 -0.003497957 -0.0027429801 -0.0001846177 0.00042903423 -0.0011575511 0.0016303883 -0.003004361 -0.00027048812 0.00092835876 0.0026018708 0.0041108937 0.0012281802 -0.0015326911 -0.0026795391 0.00047424642 -0.0027578864 0.0030526612 0.0031454156 0.0004443794
infrastructure -0.0012428268 0.000494234 0.0031786254 -0.00321208 0.002418532 -0.0014322832 -0.003209787 -0.002661593 -0.0010727422 0.0033921208 -0.0036128922 5.792906e-05 -0.0030754786 -0.0034620774 0.0009294417 -0.0016569018 0.002787368 -0.0031939533 -0.0027102225 -0.002520718 0.002381488 0.0012686546 -0.0017861411 -0.0026665337 -0.0020841833 0.00049611746 -0.004247342 -0.0023392807 -0.0023293365 0.0015548877 -0.0029272332 0.0039386638 0.002661975 -0.0005621952 -0.00044932857 -0.0036476743 -0.0021320924 0.0024057236 0.0036960572 0.00310119 0.0031243155 0.0030370275 0.0022190502 -0.00021279765 0.0019235079 0.002371143 0.0022909308 0.0019739147 -0.0027625142 -0.00011472718 -0.0009721473 0.0014899006 0.003921031 0.0016206831 -0.0040661194 -0.00259234 -0.003909953 0.0021795325 0.0009188645 -0.0028684174 0.0030927698 -0.0018262741 0.003026267 0.00076645025 -0.0028170398 0.0032429087 -0.0031480636 0.0033362845 0.00027540303 -0.003769624 -0.003951269 0.0012122791 -0.0025334503 -0.00046736439 0.0032900102 -0.00367384 -0.0013638792 -0.002795595 0.0010539477 -0.0027263514 -0.0018360289 0.002230552 -0.00090005563 -7.731294e-05 -0.0025486688 -0.0034139168 0.002748412 -0.0009950468 -0.0003632532 0.0027678818 -0.0021849198 0.0034074492 -0.003426098 -0.0011964077 0.0031709038 -0.0002879204 -0.0004117347 -0.00280162 0.003637749 0.0038830072 -0.0006745276 0.00073957455 -0.00062251627 -0.0030878226 0.0037261702 0.0038038106 -0.0017549121 -0.00017184536 0.00089737173 0.0004020264 -0.0026852202 -0.000106962514 -0.0005257865 0.0005832583 -0.0024969305 -0.0020472715 -0.0012806947 3.3042983e-05 0.0014719352 -0.0007391015 0.0007443477 -0.0020601673 0.0012362603 0.0012493866 0.0016117181 -2.6886064e-05 0.0007871273 -0.00055636617
main -0.0014854438 -0.0018194593 -0.0028067704 -3.518219e-05 -0.003658029 -0.001242291 0.0009581314 0.0011650575 0.00025013756 -0.0036845708 0.0035203185 0.0021750324 0.00041361805 0.0019342749 -0.0040311576 -0.0019996695 -0.0013120284 0.00079178554 -0.0016279682 -0.00048678307 -0.0008420948 0.002448287 0.00035294992 -0.0033640452 -0.00059623853 0.003661437 -0.0032559254 -0.00068487966 -0.0020979093 0.0016778973 -0.003877679 0.0014239233 0.00070774794 -0.0006907939 0.0009964862 -0.0026613323 -0.00235162 -0.0014646163 0.00051679695 -0.0015180907 -0.002999047 0.0014497413 0.001951603 0.0031555733 0.002258861 0.0014945825 -0.0024786994 -0.00072984566 -0.0029684864 0.000737238 0.0036455956 -2.56395e-05 -0.003774588 0.003230667 0.00050180784 -0.0025061197 -0.0038294066 -0.0021218355 0.001330372 -0.0018341736 0.00026788504 0.0028052034 -0.0005823847 -0.00041640978 0.0028855163 0.00327506 -0.0027567663 -0.00036631856 0.001815655 -0.00067377393 -0.002039417 0.002656527 -0.003420025 0.0020552129 -0.0026644398 0.0003073627 0.00091387064 0.002497355 -0.00019211082 -0.00014725862 -0.0012248625 -0.0005223102 0.003317991 0.0007010223 -0.00021011534 -3.974561e-05 0.0019797762 0.0025751335 0.0012417166 -0.00398186 0.0037973393 0.0037800064 -0.0021755102 0.0013072956 0.0023594785 -0.0009829347 -0.0016579769 0.0035994414 -0.0012297306 0.00021036238 0.0005081755 -0.003497264 0.00069895067 -0.0032183193 0.00057339884 0.0004833436 -0.001652313 0.0018083046 -0.0021045958 -0.00039053368 -0.0033890423 -0.0025968335 -0.0032642942 -0.0031529146 0.003981299 -0.0033235457 0.0028269906 0.0033037132 0.00044227476 -0.0037156413 -0.0013287873 0.00094521075 0.0012385527 -0.0032291177 -0.0034205136 -0.0033671889 -0.00399911 -0.0009541872
dates, -0.003342424 0.0026395577 0.0004355797 0.0027682972 0.00010290314 0.0007205802 0.0026433822 -0.004124053 0.0013848303 -0.002136014 0.0022380496 -0.0012321438 0.0020247665 -0.0015298659 -0.004046852 -0.0021221717 -0.003213449 0.0032134403 -0.0008700825 0.00034612362 0.003901196 -0.0025269352 -0.0001314065 0.0006744096 0.0023979142 0.0007813253 0.0022514802 0.0014032573 -0.0030261343 -0.0010890653 -0.00055227755 -0.0011723962 0.0021034637 0.0016176281 0.0037355334 0.0018676914 -0.001069862 -0.00034954777 -0.0001812957 0.0027087473 0.00076517975 0.0032824196 -0.002060883 -0.004862098 -0.000838294 -0.00018819781 -0.000720325 0.0017371455 -0.0004697 -0.0030810887 0.003381898 -0.0014305569 -0.0019344896 -0.0045974604 -0.0037631409 4.4652847e-05 -0.0041828793 0.00016587661 -0.0019174116 0.0007967333 -0.0037632738 0.0011915537 0.00031209493 -0.0017578746 0.003471132 -0.001331254 0.0005938429 -0.0012141924 0.0028590222 -0.003732754 -0.000959001 -0.00026638605 0.0025337937 -0.002703911 0.0018825916 0.00085536775 0.0027246466 -0.0012923798 0.002458104 -0.00055978505 -0.001818127 -0.003320952 0.0024640819 0.0030904836 -0.0033830944 0.0035867325 0.0012452609 0.00031647278 -0.0004241304 -0.0019364728 -0.0009242729 -0.0018029335 -0.0028417187 0.0015645626 0.0019406078 0.0040060347 -0.0020181953 0.0017187918 -0.0004697745 -0.0015306325 0.0025370265 -0.0014262166 0.0026896968 0.0014497456 -0.0012113558 0.0042006727 0.004374568 0.00415301 8.273659e-05 0.003211895 0.00033759017 -0.004087246 0.0005629127 0.00053970964 0.0029229573 0.0039080177 -0.0007025126 0.0030976967 0.00042470184 -0.0017881964 0.0008776678 0.0038690907 0.002774373 -8.550701e-05 -0.0015395181 0.003547345 -0.0014816762 -0.0033478225
numbers, -0.00044080842 0.0002504371 -0.004503155 0.0037603884 0.00013683784 -0.0043644574 -0.0029902551 -0.0022616258 0.0005771563 0.0019416048 -0.00013288065 -0.0050374847 -0.0022832262 -0.003203916 -0.0031316888 0.0036745288 0.0015316368 -0.0005204888 -0.00015919012 0.004022934 -0.00085527275 0.0023948413 0.00022770987 0.0026962382 -0.0012770611 0.0037387318 -0.004825933 0.0014719394 0.0015725229 0.0032015054 -0.0033329993 0.0014624485 0.0036359911 -0.002687858 0.0035677818 -0.003386244 -0.003480504 -4.3650107e-05 0.00018427458 -0.00055914425 0.001588278 0.00060794153 0.00081018824 0.0019036956 -0.0022836986 -0.0038026648 -0.0001914526 0.0041147023 0.0030637188 0.0017449507 0.0036782532 -0.0010598633 -0.0021853363 -0.0025177028 0.0013302144 0.0035794526 0.0030853048 0.0011692609 0.0019136957 -0.0004844143 -0.002711466 -0.0023767606 -0.0030176498 0.00061789504 -0.0018711565 -0.004207286 -0.0029635488 0.0031319426 0.003913048 0.003262624 0.0023272869 -0.0021449514 0.0012304487 -0.0039530466 0.0037279655 0.0029148275 -0.0023877127 -0.0030388332 -0.0011130406 0.0009960734 -0.00021876131 -0.0010835269 -0.0024919673 -0.003461782 0.0033357062 0.0011477455 -0.0016432033 -0.0022249282 0.0036457665 0.0010003918 0.002529666 -0.00436504 -0.0011635477 -0.00019986124 -0.0036386873 0.004291571 0.0027589812 0.0012030783 -0.0034998583 0.000536946 -6.9775095e-05 -0.0010462255 -0.0030924408 -0.0026983272 -0.0012764877 0.0038119047 0.0007245534 0.004444214 -0.00027077398 -0.0019854484 -0.00092442904 -0.0011682516 0.0037186188 -0.0018187903 -0.0018577179 0.0014761405 0.0023431107 -0.0027266787 0.0005189755 -7.392066e-05 -0.000109870234 0.002007556 0.0014082988 -0.0020143972 0.0020529123 0.0042505027 0.0009567472 -0.0031899165
Cryptography 0.00050895195 0.003252238 0.00024238505 0.004314394 0.001828326 0.0015456367 -0.0011710272 0.0010815647 0.001504185 -0.0009647381 0.0015321749 -0.0013244081 0.0038565514 0.001264937 -0.002926486 0.004738771 -0.0013416547 -0.0010130915 0.0032830373 0.0007575918 0.0015055548 0.0037623383 -0.000575861 0.0018072941 -0.002381949 -0.00029307755 -0.00054911984 0.003209126 0.00025690006 0.00407689 0.0036697534 -0.00052130054 -0.00091827335 0.0015241648 -0.002594636 0.0010925322 -0.0037930522 0.0011239109 -0.0015348357 0.00073081994 -0.0029096252 0.0015016822 0.0009723032 -0.0011187068 -0.0013610045 0.0023482705 -0.003944804 0.0015318352 0.0006556385 9.146795e-05 0.002123496 -0.0015444022 0.0012331816 -0.00082133844 0.002663861 -6.0395225e-05 -0.0002797078 -0.0035499744 1.6514572e-05 -0.0034435643 0.0030419515 -0.0036936805 0.00087999157 0.0020242936 -0.0035645803 0.00017066539 -0.0029595706 -0.00028794256 0.0020744728 -0.0035363561 -0.0033302694 0.0035453797 0.0017637439 0.0011392946 0.0007782474 -0.0029507459 -0.0021768827 0.0019623036 -0.00073512574 -0.0011511464 0.0006665515 -0.0020683326 -4.5435794e-05 0.0031697808 0.0037149305 -0.0039862534 -0.0040499684 0.0033001534 0.003316167 -0.003584079 -0.0038597619 0.0005914737 0.0026667507 -0.0033827422 0.0023015405 0.0018709325 0.0021825777 -0.0016432103 -0.0018114106 -0.0005458389 0.0014397855 0.0021294577 -0.0038328918 -0.0019427107 0.0032744023 -0.001833504 -0.002138925 -0.0005874721 -0.0008048838 0.0026153205 -0.0008495283 -0.0011852233 -0.0021632004 -0.00081487535 -0.0013053482 -0.0026771093 0.0029948868 -0.0016009905 0.0034412981 0.001210702 0.0006544378 -0.0016402052 0.00033829117 0.0022465745 -0.001282815 0.0011986266 -0.0016104243 -0.00073411886
formatting -0.0026812705 -0.0015456205 0.0016839423 -0.0011133597 -0.00060586573 -0.0025624055 -0.0031988015 -0.003847597 -0.0029164245 -0.0020702367 -0.0031759946 7.057261e-05 -0.0029725097 -0.0021551356 -0.00016780986 0.00059776765 0.0035720393 0.0012250047 0.0018705922 0.0009445594 0.0005617449 -0.0018124349 0.002465748 0.0026384196 -0.0029487675 0.0034713051 -0.0017202729 -0.001114253 -0.0021057485 -0.0013807124 -0.0027349906 -0.0006479963 0.0007448019 0.0012920396 0.0018401622 0.0020111997 0.0024270273 0.00029211937 -0.0007441283 -0.0034922727 0.0007166621 0.0016957741 0.0032637564 0.002953497 0.00055233453 0.0024922725 0.0029721223 8.884948e-05 -0.00241633 0.0023113142 -0.0036173437 -0.00022984213 -0.0008426162 0.0029361353 0.0037344932 -0.0019351771 0.0035772412 -0.0010525087 -0.0004756615 -0.0012682506 -0.00358172 0.0016030209 -0.0029238004 0.00047958372 0.0014794086 -0.0012683463 -0.0018696408 0.00064006174 0.0033100145 -0.002395054 0.0019070365 -0.00040874103 0.0037371237 -0.0018511366 0.0015717456 0.00011605575 -0.0037498116 0.0010201377 0.0012981712 0.0025400901 5.8019028e-05 0.0009425591 -0.0013735987 -0.002974017 0.0024801164 0.0029468364 0.003806584 -0.0006402312 0.0024164014 0.0019773622 0.00026340692 -0.001365196 0.0035892257 0.001424642 -0.0036416883 0.0032149027 -0.0026705775 -0.0014712403 0.0016705352 -0.0005638419 0.0034562778 -0.0023891695 0.001894519 0.00055995665 -0.0032310204 0.0004826581 0.0026254714 0.003679835 0.00015243905 -0.00072167715 0.0016646972 0.0012233715 -0.00183002 0.0031300534 0.00020951251 0.0013040849 -0.0020178065 0.00068430474 0.0010368162 0.00032186307 -0.00024865233 0.0025356612 -0.0004438713 -0.00033294645 0.00015829787 -0.0013078294 0.00078792084 0.0003942248
Key 0.0011197805 -0.002654187 -8.0643156e-05 0.0011395161 0.0003180329 -0.0035696886 -0.0032924772 -0.003246183 -0.0019861215 -0.0018156554 -4.5705892e-05 0.00065116584 0.00036880307 -0.0027188733 -0.0011344951 0.0007402797 0.0015082811 -0.0028992235 -0.0025778054 -0.0016488503 0.001187504 0.002784199 0.002545636 0.00041230736 -0.0039456636 0.0013233362 0.0008074524 0.002207906 -0.0022289664 -0.0016984821 0.0006534447 0.0023378707 -0.0018216318 -0.0039668153 1.0200706e-05 0.0017008212 0.0019553585 3.3733082e-05 0.0015389355 -0.0032118645 0.00019306234 -4.37546e-06 -0.002192014 0.0021215926 0.0018092325 0.0033326542 -0.0020363356 0.0011042276 -0.002292692 -0.00072648295 0.00049072626 -8.064682e-05 0.0032463057 0.002996816 0.0019452763 -0.0015355827 0.0022346172 -0.0005026614 0.0031672488 -0.002968242 0.003212539 0.0024041596 -0.0013601524 -0.0010248158 -0.0040443046 0.0015203857 0.0017969955 0.0020766677 0.0013776523 0.0007558128 -0.004264493 -0.0012074177 0.0016398615 -0.00010969165 -0.0034786582 -0.00074949424 -0.0008718205 0.003863955 0.00043733843 0.0006893027 1.2379896e-06 -0.0018235529 0.0027131585 0.0006002595 0.003439725 0.002141179 -0.0035571314 -0.0021993865 0.0030477827 -0.002901784 -0.0014065611 -0.00038331514 -0.0017128369 -0.003961658 0.0004114027 -0.002290009 -0.00385922 0.00030769495 -0.002350407 -0.0021019222 0.0025055355 -0.0018983291 0.00044862286 -0.00426543 0.0023937954 0.0034961037 -0.002277404 0.0014857565 0.00012312506 2.8871009e-05 -0.0014541042 0.0007319463 0.002792785 0.0033239985 -0.0017537308 0.0025678852 0.00052352756 0.000597024 -0.0024504473 0.0032531815 -0.0012417522 -4.6655725e-05 -0.002230002 -0.002189179 -0.0014706226 0.0015311835 0.0025545426 -0.002773769
certificates 0.0022307916 -0.0029981013 -0.00020994176 0.0010712331 -0.0020415084 -0.000689272 0.0032080454 -0.0038000557 0.0018107255 -0.0035041196 -0.0030029728 -0.001566416 -0.0026021244 0.00011039905 -0.00029825163 -0.0027193215 -0.0019991111 0.0019201323 -0.00056755036 0.00043215448 0.0035808526 -0.00221952 -0.0031991962 0.001346835 0.0022365586 -0.0017270969 0.003064437 0.0029451684 0.0013204966 -0.0013908235 -0.0014376864 -0.0020753932 3.603255e-05 -0.0018600695 0.0027078262 -0.0028193218 0.001602641 -0.0023294822 -0.0017552048 -7.64404e-06 0.0017927419 0.00045290607 -0.0024452757 -0.0018314839 0.0018594833 -0.0014405093 -0.0022409076 0.003121255 0.0003044197 0.0028722505 0.00083179586 0.0030481943 -0.00343909 -0.0017313261 0.00080764666 0.0035784165 -0.0032695392 -0.0016881499 -0.0023768726 0.0034713624 -0.0036213512 -0.0015756291 -0.00040587859 0.0011597722 -0.00336244 0.0021847528 0.0026447172 -0.0025387437 0.00047686187 -0.0039480454 -0.0044518164 0.0022006878 0.0013402551 -0.003803219 -0.0019792805 0.0031387135 -4.4610588e-05 -0.0024553193 0.0028059473 0.0030968012 0.0011169101 0.0012356859 0.0005151903 -0.0036739444 5.6161527e-05 -0.00029887355 -0.00025084175 0.0024753702 0.0024053878 -0.002475014 0.0020829504 -0.0024833658 0.0022918228 -0.0023027596 -0.0038019626 0.0012136123 -0.0021788538 -0.0022517554 -0.0015488527 0.002191105 0.003571795 -0.0013773262 -0.0013960238 8.348132e-05 -0.0012150821 -0.00013412902 -0.0015519747 -0.002894618 -8.915097e-05 0.0027482843 -0.0025417453 0.0027416055 0.0028764363 0.00053901627 -0.0010616727 0.0027468908 0.002049783 0.002986113 -0.001763371 0.0025078126 0.0018517972 -0.0014838703 0.0033889113 -0.0024672619 0.0005525016 -0.0028211 -0.0017280205 -0.0027116528
be 0.0030872482 -0.0033807755 -0.0017136917 0.0031221989 -0.0033899345 -0.0013149771 0.0010105368 -0.0010668972 0.0021071003 -0.0012003678 -0.001828192 7.758838e-05 -0.003021242 0.00062077795 -0.0022721472 0.00013735522 0.003577042 0.002157291 0.0023756116 -0.0005866749 0.0027393096 -0.0018722514 0.0031799101 -0.002302747 -0.0042683613 2.7646463e-05 -0.0005583972 -0.0007622244 -0.00030148335 -0.00052414817 -0.0017427113 -0.0032903166 0.001867688 0.0035003256 -0.0025030675 0.0036361099 0.0020527006 0.0010372567 -0.0028161271 -0.0024933561 -0.002160188 0.003328947 -0.0033436208 0.00069718686 -0.0032106726 -0.0016082593 -0.0011642373 0.0033041926 0.001715793 0.0029438531 -0.0023939712 -0.00025501245 -0.0014810131 -0.0007169937 0.0015608413 0.0008385354 -0.0017817647 0.0018674686 -0.0006684947 -0.000778254 -0.002766081 -0.0018386436 0.002968025 0.003961645 0.0012999002 0.0027054283 0.00122648 -0.0029767724 0.0039437097 -0.00059265725 -0.0037228502 -0.0011908624 -0.0038221814 -0.0016780661 -0.0005468562 -0.00039094497 -0.0013814705 -0.0036786648 0.0035896266 0.002572977 -0.0042880084 -0.0002219001 0.00061928213 -0.0025665723 0.0024213654 -0.0011930562 0.0009193396 -0.003406057 0.0008310049 0.00060422206 0.0033419044 0.003065465 -0.0038011235 0.0038121298 -0.00096249545 0.00023940687 0.003636761 0.0007300468 -0.0013920598 0.00024947475 -0.0039234553 0.0039023422 -0.0019841525 -0.0018037716 0.0022902887 -0.00089955056 -0.0012503688 0.0009322388 -0.0012463401 -0.0028079958 0.00018206483 -0.002669697 0.0023616704 0.0020734994 0.0037205508 0.001458272 0.000700199 -0.0011589509 -0.003453956 -0.0033885264 -0.003316678 0.0037331346 -0.0026817895 -0.0033565953 -0.0025606554 -0.0012454486 0.00058711274 -0.0034795299
interfaces -0.0026023702 -0.0031235854 -0.0029158695 -0.00077957555 -0.0035917424 0.0029260197 0.00084433006 0.00053073897 0.0019527182 -0.0025420072 -0.0014283656 -0.0010550906 -0.0026560272 0.00025101186 -0.0040933657 0.002845745 -0.0023782642 -0.00243849 0.0035387957 0.0015032768 -0.002062732 0.0016408637 -0.0021122291 0.0012158172 0.0005207817 0.0021434426 0.00025742478 -0.0003924148 -0.00024899055 0.00029538438 0.0014125714 -0.0026404944 0.0014096028 0.0037507343 -0.003606591 0.0032892409 0.00013828943 0.0002455419 -0.0006197496 -0.0027121708 -0.001206846 -0.0008377703 0.0001449255 0.0032656144 -0.0017996437 0.0023972641 -0.002496847 0.00017660213 -0.0026686501 -0.001089674 0.0014412648 0.0032198143 -0.0008425282 -0.0040683937 0.0007487699 -0.0018277601 -0.002053121 0.0022773026 0.0020992935 -0.0022886514 -0.00262479 0.00011626112 -0.0015237485 0.0026425761 -0.0027728125 -0.0031676588 0.00097090827 -0.0032986102 0.0009573 0.00030891495 -0.0037685435 0.001289511 0.002191217 0.00038907543 0.002403713 -0.0033615595 0.0012405567 -0.0022333527 0.0026736367 -0.0021201035 0.0026034636 -0.0029785137 -0.0018090985 0.0026145868 0.0036971716 0.0011889659 -0.001614241 0.0028870772 0.004343961 0.0037920063 -0.0014180145 0.0010890726 0.0022701116 -0.0025373292 -0.0022059458 0.003512389 -0.0010105968 0.0026019139 -0.0024295854 0.0040343828 -0.0006316864 0.0023042536 -0.00034784203 0.0011700193 0.0020431478 0.0005372866 -6.6105655e-05 -0.00027070675 -0.0030927667 -0.0018911735 0.0033244463 -0.0040413514 -0.0037601143 -0.00212426 5.67497e-05 -0.0033586607 0.0006902748 0.0027741708 0.0024924893 0.0016562784 0.0036255599 0.0013725559 -0.0011970181 0.0020169315 -0.00026584635 0.002270305 0.0015335206 -0.0031803409
Documentation 0.004064879 0.0010014364 0.0019968054 0.0018029562 0.0028545405 0.0016610033 -0.0039938698 -0.00347099 0.0004316768 0.0005631404 -0.0034176642 0.002487984 -0.00046504717 0.0018356458 0.0015701782 0.00040660653 0.0031746612 -0.0024477076 -0.00020284244 0.0026556635 -0.00051762786 0.0015579945 0.0030838153 -0.0035127874 -0.0001451675 -0.0030174481 -0.0012528708 0.0019223494 0.0017335131 -0.002043978 -0.0031903288 -0.0032074407 -0.0039673774 -0.0025736385 0.0028167453 -0.0010911162 0.0012917073 0.0009938688 -0.0015191339 -0.002546449 0.0023794465 -0.0009216007 -0.00071869494 -0.0029212965 0.0030347754 -0.0002790954 0.003238001 -0.0033526374 0.0023453427 -0.0020350113 0.002692742 0.001772213 8.596546e-05 0.0019498055 0.0020401264 0.0017791364 -0.0014099769 0.00017501462 -0.0006185468 0.0022546034 0.0009978758 -0.0036202667 -9.03847e-06 0.00024058274 0.0012744294 0.0023866186 0.0018425798 0.00059331156 0.003908608 0.0011546115 -0.00030260987 -0.0019341931 -0.003276505 -0.0023996877 -0.004116744 -0.0026336135 -0.00020830966 -0.0036234518 -0.0032525451 -0.001459336 0.0020883242 0.001869388 -0.002077624 -0.00044966032 0.0015761871 -0.000165016 -0.0020856017 0.0013063347 0.0017060305 0.0007535091 0.002307757 -0.0016442131 0.001368894 0.0011156582 -0.0039162813 -0.00018469714 0.003251121 -0.00015258174 -0.0020669564 0.00083469617 -0.0013026644 0.0019133132 -0.0008124464 -0.0011034624 0.0020107336 0.0025105798 0.0017120569 -0.00046309966 0.003693181 0.0016762906 0.0010687055 -0.0019791564 -0.0029665804 0.00028415045 0.00060775434 0.0022617735 0.0022803575 -0.0006317466 -0.0006209232 0.00033817888 0.00026444448 0.00071877794 -0.003322439 -0.0030352315 0.0027284313 -0.0012603046 -0.0037404029 -0.0011265898
RFC -0.0005953988 0.0014911412 -0.0031274094 0.003421386 -0.002896037 0.0010716362 0.00022234686 -0.004705567 -0.004448196 -0.0014521574 -0.0014464082 -0.0009211389 -0.0036438825 0.0033261424 0.0018828484 -0.00056111976 0.002502852 0.0021189307 0.004335105 -0.00044806386 0.001040271 0.00048593938 -0.00309433 0.0025851547 -0.005043096 0.00010968219 -0.0043181167 0.003220613 -0.0053664832 -0.0029455393 -0.00068292976 0.0053905365 -0.0041375724 -0.00212926 -9.393488e-05 0.002708361 0.0011802466 0.0037909835 -0.0005375078 -0.0015340989 0.0036237687 -0.002530856 0.0021499752 0.0015184095 0.002603428 0.0021828183 0.0026010487 -0.00015621667 -0.0002568975 -0.0019092357 0.0021336533 -0.000538734 0.0031681117 -0.0028076393 -0.0045437645 0.002549799 0.0018902915 -0.0030346815 0.0033865308 -0.00038393703 0.0024371415 -6.8256963e-06 0.0034688103 -0.0027978423 -0.00015182605 0.0022647446 -0.00041292366 0.0013062122 -0.0023498074 -0.0012196633 1.4189207e-05 0.0030259707 0.0009635537 -0.00088288024 -0.0021783712 -0.003494879 -0.0047208657 0.0015268372 0.00014952518 0.0012004209 -0.0057740766 -0.002895532 0.003454957 -0.003548636 -0.002811203 -0.0033131808 -0.003822329 -0.0020095028 -0.0016187278 -0.001875651 -0.0042714025 -0.0037833299 0.0018582963 -0.004423594 -0.0010642706 0.0033624761 -0.0030782176 -0.0011703813 0.0019624473 0.0041007786 -0.0015884142 0.005049154 0.0020833004 -0.00094408134 0.0024741436 0.0040429975 0.0022144339 0.0039249663 -0.001904301 0.0012654486 0.00048853393 0.00036653064 -0.0025495382 -0.0031034271 -0.0010081071 -0.0005229995 0.0043691956 0.0026824754 0.0010107261 0.0024909826 0.0014627653 -0.001941112 -0.0029607422 -0.0010025182 0.0017345813 -0.00063410844 -0.00081840024 -0.0026723046
Architecture 0.00398065 0.0028194622 -0.004248179 -0.0027309675 -0.0027819327 -0.00046734884 -0.0038772882 -0.004003364 -0.00071454054 -0.00048410936 0.0028676176 0.00077011803 -8.069423e-05 -0.0031788421 0.0034556428 -0.001122037 0.0026695945 0.0035366649 -0.0031978255 -0.0009413007 0.0022497084 0.0019493576 -0.0007534108 0.0044506406 0.0028970395 0.0011756041 -0.0036497028 -0.0011494295 -0.0012405653 0.0025900428 -0.0038029698 -0.001272739 -0.0024837896 0.00014328833 0.0019475396 -0.0020716803 0.0034471336 0.0029287876 -0.0033876384 -0.002966072 0.0024233386 0.00049160776 -0.0020436773 -0.00013872268 -0.0028618227 0.0025759572 -0.0011879198 0.0025518774 -0.002588804 0.003686044 0.004157065 -0.0022310682 0.0030331714 -7.07588e-05 -0.00053369434 0.0025584227 -0.0041663344 0.002958331 0.00046446428 0.0011037271 0.0040779947 -0.0017559839 0.0019654979 0.002303529 0.0021692568 -0.0007740755 -0.002908171 0.0016346518 -0.0022917276 -0.00449056 4.55044e-05 0.0028270767 -0.00030115462 0.0010097482 -0.002215575 -0.003162447 -0.0005390009 0.0010829903 -0.0023970548 0.0030053519 -0.0008752829 0.0028579503 0.003614233 0.0011390639 0.002745735 -0.00037827156 -0.0026280044 -0.0011763352 0.0048335353 -0.003225237 0.0012164767 -0.0006740969 -0.0010042398 0.00056097604 0.00022223972 0.0014714091 -0.0010534348 -8.262178e-05 -0.0020736926 0.002318834 -0.0029351963 0.002696483 -0.0038904152 -0.003323242 -0.002042445 -0.0012090036 0.0027042227 0.004696143 0.0025271135 -0.002712446 0.0017732785 0.002950024 0.0014152227 -0.0028804997 0.0027755992 -0.002648296 -0.0024575482 -0.0028282017 0.0006315816 -0.00066046644 0.0023359486 -0.0030052913 -0.00253112 -0.0025372587 -0.0032726328 -0.0015024089 0.001282978 -0.0039212396
parsing 0.00014165112 -0.0021513791 0.001758017 0.0017542709 0.00018504648 -0.003877572 -0.0031906709 -0.0022809908 0.0015524534 0.0019817457 0.0025911154 0.0025662545 -0.0013558794 0.0033987123 0.0009540826 0.0037356236 0.0016461981 0.003502542 0.0029273103 0.0036736145 -0.0005401197 0.004156651 0.001003688 -0.002867071 -0.0027530596 -0.0035146342 -0.0010260162 0.0030120173 0.0025032205 -0.0003091636 0.0027894417 -0.0014104599 -0.00062550494 -0.00127908 -0.0020412328 -0.00036298545 -0.0003738741 0.0012793612 -0.0028501377 -0.0020021156 -0.0035360428 -0.0013110086 0.0028329028 -0.003830759 0.0039824303 0.0028979913 0.0013994011 -0.0012000541 -0.00059134874 0.0028112459 0.0022090892 -0.0029807214 0.0023422227 0.0023470996 0.00038755647 -0.0011044926 0.000977368 -0.0032601538 0.002422175 0.000425114 0.0027987082 -0.0009839435 -0.0023033635 0.003974633 -0.0028997248 -0.0040138746 -0.0006050832 -0.002900335 -0.0015032457 0.0025780185 0.0010499042 -0.0010722186 -0.0014830057 -0.003628778 0.0014116951 -0.00030989698 -0.0030335977 -0.00015005411 0.0026886042 -1.7637265e-05 -0.0019138702 0.0035541286 -1.40140655e-05 0.00029685415 0.001148091 -0.0023100548 -0.0008548998 -0.0032703625 -0.00017162612 -0.002554197 -0.0007212963 -0.0016601629 0.0008413006 0.002280835 -0.0030682993 -0.0030087652 -0.0002504727 0.0003862516 0.0007714248 0.00028920826 -0.003658059 -0.0007531242 0.0017035969 -0.0038310643 0.00097562413 -0.0012249476 -0.0022026883 0.0049423277 -0.004582722 0.0030910654 0.00030390732 -0.0017572743 0.002164112 0.00036029282 -0.002163624 -0.0014720889 -0.0012829719 -0.00045016213 0.0038271893 -0.0020593607 0.0008476348 -0.0026737836 0.0031440854 0.0031653112 -0.00042895676 0.003503431 -0.0019322507 -0.001895709
Provides -0.0038379459 0.0018310301 -0.0021428415 0.002428756 -0.0014028327 -0.0028442715 -0.0018367055 0.0004994146 0.002212353 -0.0017850386 0.00040050063 0.0018694717 -0.00052938535 -0.0032076337 0.0017717398 -0.0013096686 0.0015368197 0.0025487966 0.000253931 0.0010707588 0.0037264926 -0.0010460662 -0.0020716 -0.003593372 0.0035039429 0.0023670306 0.0012111416 0.0009080181 0.0021420312 0.0031659035 -0.0037261664 -0.0010038696 -0.0007612416 0.002873106 -0.0011586298 -0.002642823 0.0026910673 -0.003866319 0.0035402114 0.0020139094 -0.0026877378 0.0027987566 -0.0017745633 -0.0021261298 0.0023680069 -0.0012451046 -0.0008511051 -0.0038767387 0.0006965898 -0.0021636197 3.0508795e-06 0.00050558033 -0.0030736371 0.0037612095 -0.0028266457 0.0018603933 -0.002453565 -0.0018363338 1.87638e-05 -0.0034546547 0.0016267573 0.0033383917 -0.0033178704 9.62895e-05 0.0011212965 -9.8675795e-05 8.357152e-05 -0.0018420279 0.0010307885 -0.0021327916 -0.0037742662 -0.0017232893 -0.002848567 0.0025683981 -0.0017492813 -0.0009531042 0.0018974879 -0.00029188345 -0.00030423878 -0.0010260491 0.0014004323 0.0001329806 0.0029427412 0.0038068276 0.0011554748 -0.0030805415 0.002632206 -0.0027781609 0.0032232376 -0.00070142717 -0.0024132102 -0.0017055483 -0.0032468608 0.0030213653 -0.0036252455 0.003274147 0.0014211304 -0.0011782423 -0.0018634545 -0.0026728557 0.0003870732 0.0011859047 -0.0011117834 0.0034292033 0.0027283337 -0.00019714041 0.0011237486 0.0025843948 -0.001512605 -0.0011337673 0.0035561132 -0.0030437699 0.0009833524 -5.549044e-05 -0.0017943673 0.00021722449 0.0020271677 -0.0015572885 0.00077340135 -0.00048606988 -0.0010450566 -0.0022114257 -0.0035406188 0.00052642357 0.0019781422 0.0017115244 -0.0019478262 -6.8665584e-05
contains 0.002902034 0.0036083357 0.00075517263 0.0029284612 -0.002338733 -9.471394e-06 0.0002701157 0.001872259 0.0021958973 -4.4829118e-05 -0.0036474261 -0.0027578962 -0.002438267 -0.0032426184 0.0011959394 0.004718249 0.0012983878 7.744786e-05 5.8519627e-06 0.0019391102 0.0019297533 0.0041172737 -0.000563283 -0.0025196222 -0.005163971 -0.0030205434 -0.0032255421 0.0009339892 -0.00451559 0.003963447 0.003459574 0.004508952 -0.0034432907 -0.0012370305 -0.0037814593 -0.0032066363 0.0020870918 0.0025252209 0.0011177415 -9.911191e-05 0.00069965597 0.00093834125 -0.0027444386 -0.0009971377 -2.7234588e-05 0.0027247698 0.00015775033 0.0026458444 0.0046816473 -0.0006568723 -0.0018646569 0.0005208847 0.002605553 -0.0017559581 -0.0022458532 0.000117342846 -0.001623767 -0.0017510566 0.00018607275 0.002865277 0.00057791226 -0.0040517924 -0.00095540914 0.003284263 -0.003456564 0.0020478894 0.0015689689 0.004382566 0.0019105267 -0.0021067907 -0.0011593407 0.0029330924 -0.0016113919 -0.004377481 0.0007565006 -0.0034319551 -0.0016358388 0.0028134321 0.003117806 0.0015049062 -0.003336786 0.003016561 0.0015800426 -0.004038891 -0.003969744 -0.0005379102 0.0027089196 -0.0039443322 0.0036121716 0.0035010208 -0.004231658 -0.00034844628 -0.00089438335 -0.0003050377 0.0019382972 0.003927942 0.002207257 0.0016094439 -0.002064358 -0.0025202914 0.0012465884 0.0043673418 0.00084061845 -0.0025604265 0.0021565324 0.0022764006 0.00028175843 0.0032434093 0.0015595554 -0.00319613 -0.00014917784 -0.0006268119 0.0034154868 -0.0012365786 -0.0009434605 0.0019314745 7.950841e-05 0.00041202825 -0.0024388954 -0.003430032 -0.0029415435 -0.00085139775 -0.0012126864 -0.0027429643 -0.00046722882 0.0039893826 -0.000116750045 0.002749209
Guide 0.0041626813 0.0035397024 -0.00037035657 -0.0013954715 -0.0018818204 -0.0035403636 -0.001512644 -0.0012415879 0.0012758712 0.0037923313 0.0005381968 -0.0024366847 0.0018506914 0.0034356776 -0.003335991 -0.00037791405 0.003961926 0.0029252775 -0.0008770188 -0.0019455281 0.003778123 -0.00092708285 0.0033410175 0.0040550507 -0.0030141068 0.0033438248 0.0028818569 0.0025893485 -0.00027341334 0.0014286428 -0.0006266266 0.0010636754 -0.0020650357 -0.0014233111 0.002344154 0.0016212885 -0.0031058947 0.0015531176 -0.0035514901 0.0031462002 0.0037033188 -0.0011366282 0.0031226014 0.0020792964 -0.0018077189 0.0014376882 0.0006775514 -0.00068719656 -0.0006562515 0.0039125504 0.0038125126 0.0025309178 0.003330079 0.0035470054 -0.001413947 -0.002661184 -0.003645724 -0.0007344471 -0.0017976615 -0.0012296228 -0.0010986467 0.0032022274 0.00090233044 0.004402418 0.0016278113 -4.781015e-05 0.00030937456 -0.0019370844 0.0031765113 -0.0044816565 -0.0023683643 0.00022201147 0.0035642837 -0.004598895 0.0013474758 -0.0016137428 -0.0032999467 -0.0013743875 0.0025731863 0.0016260315 -0.0005562617 -0.0029005127 -0.002065343 -0.0032572425 -0.0038595018 -0.002498855 0.0009532874 -0.00080208655 -0.0003778124 0.003611832 0.00295911 -0.0028892378 -0.0027426344 -4.3540203e-05 -0.0006941792 -0.0018507843 -0.0007403091 0.0025222192 0.0032980305 0.001655639 -0.0038111724 -0.0013460013 -0.003091 0.0026822877 0.003328636 -0.0027813662 -0.0010761184 -0.0011003495 0.0023147378 0.00071186805 0.000543416 -0.0032767043 -0.0021121104 0.001963361 -0.0007497893 -0.0032915587 0.0029096282 -0.0026900037 -0.0008517656 0.0026626843 0.00049848336 0.0044456553 -0.003575075 -0.00020311288 0.0027977868 0.0004364356 -0.0011693265 -0.0018506019
localizations 5.043101e-05 -0.0038281942 -0.0018676948 0.003212379 -0.0011551935 -0.0004823955 0.0021061443 -0.0017248522 -0.0037629846 0.0024817423 9.44636e-05 -0.00029225342 -0.0012594052 0.00090622896 0.0013436027 0.003659332 0.0007871076 -0.0037967607 -0.00105145 -0.0029422443 0.003466685 -0.0022785594 -0.0010158167 0.003157736 -0.004372566 0.0017244864 0.0011424224 0.0013218278 -0.00085219846 0.00060819177 0.0025974484 -0.002555768 -0.0022853657 0.0009830397 -0.0036550153 -0.0033654924 0.0025589874 0.0032786755 -0.003361525 -0.0029843526 2.0928077e-05 0.0003117157 -0.0025575322 -0.0029152387 0.00092235644 -0.002381647 -0.0017631558 -0.0026141934 0.0015668056 -0.0023556454 0.0017317847 -0.00015879603 -0.0007083017 -0.0041589406 -0.00076943095 -0.00084924133 -0.0032633347 -0.0041188495 0.0038093347 -0.0030703994 0.0019469382 0.0021215344 -0.0010204386 -0.00012596158 -0.0017139106 -0.0027947794 0.00012468439 0.0037925814 -0.0023566217 -0.00020222426 6.965455e-05 -0.0016967588 0.0013799409 0.0016595259 0.001461145 -0.0029802548 -0.0015392252 0.0018571195 -0.0017755895 -0.0025001145 0.0009776279 0.001483728 0.0025145314 -0.0017190605 -0.0038000646 0.0028763097 -0.0022420515 -0.0025980144 0.003778394 0.0036017257 -0.003232178 0.0024704284 0.0020864122 -0.0035425175 -0.0015644588 -0.0017388079 0.00042589652 0.0005378993 -8.753059e-06 0.00043171243 0.0010025194 -4.1179082e-05 -0.0022191678 0.0027066607 0.0010311981 0.0010753105 0.003174039 0.0010331201 0.0032178427 -0.001419625 -0.0031366192 0.0030955211 0.0012587479 -0.00047359103 -0.0036985837 -0.0026453233 -0.00180092 -0.002341618 -0.0016315266 -0.0016897469 -0.0004474105 0.003991185 -0.0013319658 -0.0022794649 0.0011100692 0.000168521 0.0015206708 -0.0033953171
can 0.002117932 -0.0032435935 0.0022800486 -0.0014155635 -0.003194125 -0.0037200865 -0.0025212967 -0.0034018392 8.674866e-05 -0.003827028 -0.0027031412 -0.0037749738 -0.0016327568 -0.0011810145 0.0029064822 0.0011696157 0.0015031247 2.6852034e-05 -0.0018868748 0.0017441233 0.0012403642 0.0004784314 -0.0012612292 -0.0022085782 0.0033862377 0.0015048302 -0.001506612 0.0021952393 -0.0017498364 -0.0016091778 0.000887665 -0.0026105943 -0.001218758 0.0022841892 0.003537476 0.0023632105 -0.0016341896 -0.0025286095 -0.0030316857 -0.0029959984 -0.0036287918 -0.0018368614 -0.002295483 0.0004280109 0.0036528492 0.0031686067 -0.0029018805 0.0022373584 -0.0012196583 -0.0014700759 -0.0029644016 -0.0022592656 -0.003212703 -0.0019107555 0.0028962696 0.0011097566 0.0005354863 0.0001019779 -0.0035106596 0.0033680375 -0.0005949349 0.0030998443 -8.7696186e-05 -0.002134739 -0.0009694688 0.00025064556 0.002014465 -0.00065990357 0.0036906912 -0.0030880915 0.0021547123 -0.0019067462 0.0025790662 0.0021667127 0.0017039966 -0.0032926563 0.0002643274 0.0014625243 -0.00024197287 -0.0017014865 -0.0040908735 -0.0007418146 -0.001367216 0.003160899 0.0018710437 -0.001802383 0.0008878001 -0.002529592 -0.0023757494 -0.0025140357 0.0014977428 -0.002137187 -0.00071340916 -0.0025212653 -0.00269899 -0.00041912083 0.0021151563 0.0039866287 -0.0024165902 0.00047740134 0.0025351883 0.0012028709 0.0015391043 -0.0033613967 0.0011389037 0.0034210442 -0.0020500545 0.0021013014 -0.00069637346 0.0012811522 -0.0034803848 -0.0020062218 -0.0017089121 -0.003229773 -0.0012644392 -0.0038288292 -0.0035131483 -0.0012269684 0.0022813634 0.00075138843 -0.0025349152 -0.0020862727 -0.0020192028 0.0031644914 -0.0031184233 -0.0015838601 0.0028319028 -0.0027013693
certification -0.0024603962 -0.0038518698 -0.0031533442 -0.0012192017 -0.003537927 -0.0029619155 -0.0013370778 -0.0022170926 0.00061023404 0.0002066974 -0.0025167132 -7.898817e-05 -0.002585804 -0.00020825132 0.0037690566 -0.0019387046 -0.0021541484 -0.0010927336 0.0015910849 0.0030837636 -0.0024488925 -0.00046118093 -0.0010294104 -0.0023635775 -0.0033599082 -0.0029302258 0.00012474669 0.0015797771 0.0010132338 0.0026751256 0.00323412 -0.0025822232 -0.0002451228 0.0020052795 -0.0015185258 4.3124837e-05 0.0012083692 -0.0031848296 -0.00196813 -0.0003725756 0.0009713436 0.0025996682 0.0031233872 0.0005501136 0.0017562719 0.00040591936 2.5651305e-05 -0.0012303607 0.0011336991 -0.0032571233 -0.0037289723 0.00014814187 -0.003327258 -0.00074306526 0.0014807528 -0.002084734 0.0035017605 -0.0035954523 0.0016198613 -3.1800548e-05 -0.0026864854 -0.0003266924 0.003093825 0.0007576291 -0.00013719179 -0.0006727902 0.00018665881 0.000947884 0.0037814002 -0.0016681477 -0.0023821946 -0.0028755136 0.0019258816 -0.0018792924 0.0032758936 -0.0024114063 -0.0002597694 -0.0011752781 -0.0024335638 0.0037392639 0.0029521096 0.0012861643 -0.0038695955 0.0021696084 -0.0014765952 -0.0004549785 0.0028715504 -0.0028055704 -0.0030857741 -0.0009824407 -0.00082924933 0.0029896623 -0.0038260669 -0.0008636118 -0.0020334201 -0.0035317314 1.0209669e-05 0.002507165 -0.0033141563 0.0032519675 -0.0007173642 -0.0030707815 -0.0013463295 0.0012150098 0.0033951115 -0.0032754522 -0.0019390711 -0.002423031 -0.0024140219 -0.003926051 -0.0010126468 -0.0031988358 -0.0012205432 0.003516731 0.002384903 0.0025598116 -0.0006180439 -0.0021996342 -0.003597514 0.003958146 0.0016755306 0.00050539355 -0.00384996 -0.0040948153 0.0018884406 0.0041289087 0.0025367155 0.0037072813
text -0.0007985029 0.0036481358 0.0018146195 0.0007156259 -0.002629723 0.00024604722 0.0040000137 0.0028828706 -0.0014091743 -0.0031665955 6.1344166e-05 -0.0027826787 -0.0018744372 -0.0003340642 -0.001560686 0.0016399495 -0.003284882 -0.00080923026 5.164815e-05 0.0021372526 0.002231948 0.0007953527 0.0019495495 0.0042410125 -0.0021318526 0.002875863 -0.0005216308 -0.002475365 -0.0026430911 0.0003454229 -0.00082056434 0.0029125328 -0.0028656602 -0.0028391597 -0.0019989507 0.0011116873 0.0015424306 0.0002991845 0.00019451835 -0.0022814036 0.0017357012 -0.0015102663 -0.0028418726 -0.0002070547 0.0022535338 0.001416147 -0.0027726972 0.0016241762 0.002939067 -0.00079668104 0.0021268248 -0.0029423765 0.0026054769 -0.0037394217 -0.0006729164 -0.0005192125 0.0011987002 0.0021432645 0.002045487 0.0015862975 0.0010908819 -0.0030626934 0.0023843818 0.0019363271 -0.003494752 -0.0004277224 -0.0008750598 0.0021323485 -0.00069466437 -0.0028125343 -0.0006707983 0.0041349237 -0.0013926834 -0.0010313068 0.00036590474 0.0023636927 -0.0023170994 -0.0034416474 0.00038862848 0.0035432614 -0.0028257375 -0.0013120458 0.0018693717 0.0018129577 -0.002581026 0.0032462867 0.00062985177 -0.002528954 0.0037196414 0.00012991665 0.0005609387 0.0010141126 0.00013734154 0.0034183825 -0.0015628092 0.0011795013 -0.0016066568 0.0045396723 -0.00012821113 0.0030487906 0.0004914418 -0.001139124 -0.00043191508 0.0011610604 0.0011832447 0.0020894948 -0.0003767753 -0.0010118269 0.0017477408 0.0008601374 0.00054039696 -0.0004325454 0.00066273095 -1.9508075e-06 0.0016748437 0.0011107537 -0.00036937624 -0.0027212584 0.0013930477 -0.001967152 -0.00079013396 0.00082137255 -0.000471091 -0.00063047407 -0.0010599701 -0.000725968 -0.003889861 -0.00054006063
Certificates -0.002578755 0.0034553905 -0.0039021147 0.0020905812 0.0030056217 0.001567292 -0.0033409747 0.0017749445 -0.0002548254 -0.0024479008 -0.0016011811 -0.0007831819 0.00066886493 -0.0012545357 -0.0024759353 0.0031380898 0.0026909683 -0.0036384815 0.0039158547 0.00028738476 0.002443618 -0.0012080645 -0.0028465108 0.0014439701 -0.0038312008 -0.000120062636 -0.00291218 -0.0013544757 -0.0011024179 0.0027712628 0.00373741 0.0012189444 0.0007711659 0.0015523001 -0.00144369 -0.0028513705 -0.0037815098 0.0025161814 0.00083478424 -0.00063038146 -0.0012463887 0.0034436996 0.0028231498 0.0021936698 -0.002435755 -0.0035169437 0.00027497904 0.0014264885 0.0018969965 -0.0034276624 -0.001596146 -0.0030158528 0.0021663744 0.002554393 -0.00094532425 -0.0013463198 -0.00052167586 0.0013356013 -0.00043080805 0.001555843 -0.0031475753 0.00047473158 0.0017363526 0.0028855193 0.0031633887 -0.0014215694 0.00028491017 0.002738965 -0.0010129616 -0.0044752657 -0.003446891 0.00093060377 0.0023618867 -0.0031399867 4.6742203e-05 -0.0016809558 -0.00049370865 0.0013343764 0.00096301944 -0.0024780845 -0.0007628869 -0.00023596051 0.002971898 0.0007679322 -0.0034777022 0.00016406886 -0.00029084954 -0.002125313 0.00018882442 -0.000518827 -0.0018526599 -0.0028244923 -0.0019588694 -0.0008098963 0.0024310013 0.00033923946 0.0007582963 -0.0006144559 -0.0019876536 -0.0025429472 0.00024607178 0.0008685846 0.0011416704 -0.0004741624 0.0035048046 0.00222264 0.0004562192 -0.0013482883 0.0037320328 0.0014494816 -0.0025188834 -0.0012920629 0.0012062481 0.00067663606 -0.00084528833 0.0013801061 0.0009316533 -0.0014282989 0.0020626888 0.0004099711 -0.0005594947 0.0032224301 -0.0018551124 -0.0005193854 -0.002288486 0.00017126786 0.0025192893 0.00046138425
localized 0.0033718203 -0.0010258502 -0.002651494 0.0007902793 -0.0031350597 0.0018007479 -0.0011912931 0.0027721992 0.00016811331 0.0034689528 -0.0017635036 -0.0045459573 0.0016982963 -0.0032669513 0.003390719 -0.0010148955 -0.00026725262 0.00054641836 -0.0028836278 0.00014745876 0.0015694433 0.0025649497 -0.0014959428 0.0006057857 -0.00067356473 -0.00066841755 -0.00045356379 -0.0024654935 -0.002930156 -0.0018907305 0.0014151662 0.0044921613 -0.0011856207 0.0018288213 -0.00043273185 0.003942897 0.0022469317 0.00297121 0.0019226181 0.00078117516 -0.0034601975 -0.0018555223 -0.001503519 0.0006762211 0.0033729868 0.0005022802 -0.0026406292 9.987393e-05 0.003466465 -0.0026318482 -0.0036585645 -0.0008242793 0.0026866135 0.0023156889 0.0032917797 0.0030101705 0.0032640016 -0.0013337409 0.0031505583 0.00034477908 0.0022301804 0.0010555988 -0.0022198213 -0.0025477966 0.0002559906 0.0015264997 0.00038633533 0.0023676236 0.0041188733 0.00020758588 -0.002436333 0.0037871313 -0.0012554273 -0.0029548798 -0.0038265737 0.0009040475 0.0010611153 0.0033162455 -0.002120362 -0.0006939902 -0.0025636815 -0.002140018 0.003315293 0.0009083328 0.0021430275 0.00024385662 0.00084282074 0.0017374258 0.00406699 0.0034900538 -0.0012575737 -0.0014789131 -0.0024776605 -0.00046108544 -0.0024667352 0.003699805 -0.00048688857 0.0004081784 -5.3339045e-05 2.3208246e-05 0.00038169752 -0.001250273 0.0009613887 0.00095833675 -0.0028895433 0.0033335122 -0.0001820997 0.002845253 -0.0023446055 -0.00096248026 0.0032306004 -0.0014242082 -0.00048773855 0.00045487177 -0.0023576498 0.0029893194 0.0004563469 0.00019375377 0.002069689 -0.0035147276 -0.0015062749 0.004203043 -0.003950179 0.0025596851 0.003492417 0.0035029375 -0.0030097393 0.002202156
adding 0.0014559579 0.0014311682 0.0029897843 0.0044885487 -0.0013579328 -0.0023198538 5.427649e-05 0.00042400995 -0.00088622054 0.0025282537 0.0007573954 0.0005641243 0.0010247214 -0.0019555946 0.002601181 0.00040462098 -0.00094892306 0.0026742164 0.0019499455 -0.0004750775 -0.0021322558 0.0018281611 -0.0027615305 -0.002409001 -0.0032116906 0.0016910393 -0.0039054276 0.0042605517 0.0012945983 0.003295818 -0.00011998099 0.0025236532 0.0022824884 0.0015696177 -0.0014326887 -0.0013863879 -0.0032422366 0.003816223 0.0025626232 0.000994943 -0.002984602 -0.00053069316 -0.004095068 -0.001571661 0.0020458698 -0.0011956521 -0.0027331866 -0.0021843857 -0.0015717567 0.0003317794 -0.002324885 -0.0036005366 -0.0029986287 -0.0038474225 -0.003096904 0.0017788243 0.0032737157 -4.0303275e-05 -0.0007567786 0.00031067975 -0.00090396596 -0.0024737057 -0.0020544867 0.0029030058 0.0031644627 0.0018187582 -0.0007339085 0.0009993172 0.0042159366 0.000111450456 -0.0018490056 0.003232853 0.0031887526 -0.003141743 -0.0034865052 -0.0036256167 -0.003637919 -0.0033731025 0.0026183042 -0.00086502417 -7.991346e-05 0.0035464852 -0.00021710768 -0.0029065288 -0.0004489586 0.0020820007 -0.00021059295 -0.0007096483 -0.00021223167 0.0011409251 -0.0009404508 -0.0025947075 -0.00338136 -0.002290998 -0.004193051 0.0039543924 0.0012626414 0.003872617 0.0023889598 -0.0013034781 0.0011327666 -0.0018509814 -0.0014559818 -0.00061314285 -0.001962209 0.00459186 0.0019698516 0.003429943 6.3522086e-05 0.0016437842 0.0030254682 0.0029302966 -0.0028850792 -0.0033245953 0.0017380872 -0.002197016 -0.001669466 -0.0008554704 -0.0004030607 -0.0009303073 0.0010645965 0.003385905 -0.004611968 0.001840337 -0.0009184872 -0.0012663546 0.0031267582 0.0016220651
written 1.8972994e-05 0.003400443 0.0032895587 -0.003401099 0.0024346309 0.0033042852 -0.0015964621 -0.0034311232 -0.0009935555 0.0037443861 -0.0040607117 -0.0014860207 -0.0033410848 0.0010039848 -0.00025071777 -0.0033985223 0.003272822 0.001137003 0.0019373305 -0.0028859407 0.0038776973 0.0003307113 0.0013689267 0.003750294 0.0006431253 -0.0032523477 0.0013995381 -0.0020411958 0.0024459576 0.00088646787 -0.00070257095 -0.002435067 -0.00095244613 0.0024776447 0.0021816653 -0.0007429147 0.0012844953 -0.001018771 0.0005383199 0.0019535387 0.0027358695 -0.003543547 0.0028481435 0.0020801711 0.0001621893 -9.650645e-05 0.0019844368 0.0017158436 -0.00057831133 0.0036982694 -0.00086906424 -0.0037180982 0.0009811963 -0.00012525562 0.0007752199 -0.0030796132 -0.00016118001 -0.0011535231 -0.001844836 -0.0025343224 -0.0031040213 -0.000489551 0.0008581416 0.0036111192 0.0007954893 0.003560089 -0.0028161504 -0.0021704554 0.0005318023 -0.0017052648 -0.00264414 0.0010991927 0.0020572764 0.0023983992 -0.0034627826 0.0036274246 -0.002073448 -0.0037934252 -0.0028986651 -0.003071813 -0.0003057935 0.00065612973 0.0037010566 -0.002828598 0.0012631505 -4.2853364e-05 0.0034205855 -0.001042206 -0.0010233886 -0.004109664 -0.0024360635 -0.0016396765 -0.0033904528 -0.0030164614 0.0029178546 0.002817026 -0.0014952709 0.0024671643 0.0024827027 -0.0016201201 0.0024981399 -0.0010093157 -0.0004972631 0.0028337156 -0.0020077683 0.0014557899 0.00322207 -0.0016801587 0.0031858739 0.0026421484 0.0026877306 0.0025972624 0.0025941916 -0.001692983 -0.0014014869 -0.0028909228 -0.0013468828 -0.0023815439 -0.0014224546 -0.0001582813 -0.002314332 0.0024402218 -0.0019157075 -0.0021926302 -0.0011727924 0.0023115966 -0.003112649 0.0035298755
Standard 0.0028164787 -0.0023443145 0.00081992464 2.3079774e-05 0.0008032105 0.0018685032 -0.0030821897 0.00014285682 -0.0020356001 0.00038504365 -0.003773967 -0.0011828326 -0.0025231766 -0.001478613 -0.0033713582 0.002898224 0.0016787538 0.0030233415 0.0015638815 -0.002280604 0.0036242907 -0.00028765658 -0.003670339 -0.0028646 0.0021793821 -0.0019585707 -0.0020550315 -0.0032731444 -0.0015201909 0.0026618652 0.001298052 -0.0030521078 0.0007101201 0.002543714 -0.0027139985 0.00013534659 0.0014868911 -0.003590348 -0.0010260817 0.0003325791 -0.001048424 0.0010556752 -0.00283299 -0.003796687 -0.002799773 0.0024171288 0.0014913621 -0.0029997465 -0.0028672025 0.0024257456 -0.0015974515 0.00062427094 -0.00034927338 -0.0037709302 -0.0038000506 -0.0036839512 -0.0030061256 -0.002131877 -0.0031494375 -0.0031123376 0.003409097 0.00022764601 -0.0004912642 0.0032965932 0.0016737921 0.0031033594 0.0027766344 -0.0028775325 0.0009653679 -0.0019518863 0.0003492704 0.0016390397 -0.0028295699 0.0030640978 -0.00040857535 -0.0021842394 0.0018978568 -0.0018154997 0.0024634632 0.0038709445 0.00025495037 0.0030138576 0.00055722677 -0.0017208417 -0.0022982198 -0.00045738087 0.0016025045 -0.0020892415 -0.00048711695 -0.0009073602 -0.001753156 0.0026736846 0.0013554518 0.0014372448 -0.002329185 -0.0007073566 -0.0001755393 0.0014283303 8.245703e-06 0.002961443 0.0034083491 0.0024832657 -0.0020553581 0.0031371182 -0.0017494181 0.001170812 0.0021122617 0.003941007 -0.0035500855 0.0005748207 0.00076323305 -0.002180662 -0.0008693105 0.003478971 8.2689505e-05 -0.003644585 -0.003381913 0.0034067396 5.258908e-05 -0.0011805223 0.0017676519 0.0008342577 0.0012399971 -0.0016275336 0.0010441511 -0.0017921964 0.0019489819 -0.0011959822
to 0.00022207815 0.003627565 -0.0031780172 -0.00251873 -0.004399946 0.0030844805 0.0028252855 -0.0036289403 -0.00037864206 -0.00082557567 -0.0043563494 -0.0013693714 0.0035854748 -0.0035906848 0.0027136419 0.0028600032 0.0010784345 -0.0016066789 -0.0004533786 0.0012451624 -0.0022187412 -0.0031456628 0.0027482947 0.0021089627 -0.0019348267 -0.0018330211 -0.0023211983 0.0025709202 -0.0018426573 -0.0018919803 0.00012856687 0.0038101077 0.00012360724 -0.0018377858 -0.0030578526 0.002310989 -0.002607521 0.0012539168 0.0035517411 -0.0028961143 0.0010048707 -0.001634406 -0.0031908315 -0.0045175077 -0.0008974727 -0.0013934408 -0.0021158997 -0.0020042395 0.0002553507 -0.0017736407 0.00092282984 -0.0036811472 -0.0019755925 -0.004281443 0.0027529686 0.00033067964 -0.0044671874 0.00044703568 0.00026079948 0.0024858085 -0.0037096213 -0.0034878054 0.0038173664 0.0027212806 -0.001890772 -0.00183797 -0.0015811604 -0.0018213807 0.0037049719 0.003008888 -0.004068057 -0.0003830593 -0.0030694397 0.0019364519 -0.0006519561 0.0013210285 0.0012816681 0.0028005778 -0.001798375 0.0019438176 -0.00036294354 -0.0025559617 -0.00013704864 -0.0023445832 -0.00069805287 0.0017176656 -0.0007660164 -0.0028576793 0.00092046265 -0.0036028388 -0.004456148 3.9283106e-05 0.0007870179 -0.00021844829 -0.0014798453 -0.0004714547 -0.003063557 0.0032986796 -0.0010969082 0.0006071754 -0.0024023976 0.0050470503 -0.0008718384 -0.0015964623 -0.0014315087 -0.00017369144 0.0007977271 0.0028861065 -0.0028589375 -0.0017013394 -0.002705139 0.0024382763 0.003583172 0.0026217122 0.000698743 -0.0016684505 0.0033682159 0.0042316383 -0.0035134833 0.0020121709 -0.0013940108 -0.0020769364 0.000928506 -0.0013392156 0.0014239369 -0.001902361 -0.0013913044 0.002182787
resources. 0.00058027025 0.0019895881 -0.003648943 0.003840634 -0.00032001064 0.0012162117 0.0013028457 0.0009933929 0.0025698103 -5.7572222e-05 -0.0028204361 3.8443086e-05 -0.0026117624 -0.00080566737 -0.0016724757 -0.0029722569 0.00055131 -0.0015250534 0.0037337 0.001703337 0.001947207 -0.0014285272 -0.0031992604 0.0028387373 -0.0023710236 0.0007450631 -0.0039028332 0.0013889519 0.001078355 0.0017245243 -0.002933944 0.0032023408 -0.0007768937 -0.0010390036 -0.0020965084 0.0026843827 0.0004233344 -0.0025646738 0.00198939 0.0009870043 -0.0005991963 0.0010380393 0.0013538359 -0.0009390842 -0.0015624821 0.0032972894 0.0015866098 0.0006462584 -0.0018573841 0.0021597866 0.0012830335 0.00049253635 0.0024212573 -5.0051793e-05 0.0006146494 -0.0030000322 -0.0031100835 -0.0016163193 -0.0010545955 0.002275558 0.0031026115 0.00024023466 -0.0012389447 0.002460776 0.0029908123 -0.001438566 0.0016864574 0.0024453318 -0.0031741527 -0.0002636755 -0.0003104494 0.0032906036 -0.0013848133 0.00045318337 0.0025562446 -0.00040418052 -0.0020271293 0.003973743 -0.000653385 -0.0016707997 0.0006042671 0.0032561813 0.0031765366 -0.00031445659 -0.0027129422 -0.0023813208 -0.0034446104 -0.0018976807 0.0006899925 -0.00017016724 -0.002623124 -0.0006892665 0.003364216 0.003055327 -0.0018038005 0.0020340174 -0.002072506 0.0030782265 -0.0019965605 0.0027619891 0.002596035 0.0019559248 -0.00021608983 -0.0023211169 0.00029251067 0.00419783 0.0012078763 0.0017017516 0.0019350009 0.0034891388 0.00076072675 0.001651482 0.0002870239 -0.0034444653 -0.00048333354 -0.0008245157 0.0034871106 0.002954931 0.0011403199 0.002658158 0.0029976037 0.0036352125 -0.0029510995 -0.00055688876 -0.0018131844 0.0017747075 0.0014260655 0.002311445
string 0.0016757877 -0.0002868608 -0.0037415212 0.0016319336 0.0030422392 0.0028523544 0.0001584869 0.003092717 -0.0024816636 -0.0034384218 0.00089523336 0.0010549905 0.0018417184 0.0018738072 -0.0018929106 0.0021225763 0.0011492394 0.003981161 0.0023190205 -0.0008020897 0.004030384 0.0022760262 -0.0024497667 0.002670811 -0.003379017 -0.0007932391 0.0027955458 -0.002138631 -0.004221699 0.0038456765 -0.00020456455 0.0020453695 0.0036339448 -0.0008025948 0.0019575467 4.5159845e-06 0.00049473235 -0.0012579515 -0.0020211511 0.0009447778 -0.00040653662 -0.0010159622 0.00015510361 0.0014205558 0.0026552253 0.0009359283 0.0009218179 0.003237853 -0.0021685807 -0.0017807116 -0.0038121406 0.0011154936 0.0030288275 -0.0033145472 0.0015223868 0.0035496298 0.0028550848 -0.0018170779 0.0034095065 -0.0008629591 -0.0029871124 -3.5250425e-05 0.0028394791 0.00048443413 0.00016719977 0.0001100894 -0.0021451295 0.0037102406 -0.003066434 0.003193776 -0.0009201527 -0.00050327653 0.0009936807 -0.002056232 -0.00078109535 -0.0033892528 -0.0020592043 -0.00072187395 0.0036206378 0.0003987483 -0.0038642618 0.002769504 -0.0011964852 0.0026779228 -0.0034466365 -0.0007751255 -0.0027880943 -0.003268168 0.0048446152 -0.004093471 0.0014290006 -0.0010294999 0.0033685213 0.0024533202 0.000495875 0.0029365409 -0.0012378264 0.00017782366 0.0019412942 -0.00079217594 0.0031586217 0.0041523296 0.0038280198 0.00055662193 0.002117654 -0.001295646 -0.002981048 0.002197279 -0.0011267508 0.001980355 0.0010449123 -0.0040914463 -0.0034339123 0.00015361921 0.0010266361 0.0034848205 0.0034860114 -0.0032126447 -0.0021832625 0.00039524125 -0.001125893 0.001929778 -0.0009905874 -0.00038228428 -0.0012643263 0.0013711527 -0.0005714647 0.0011660914
means -0.002141204 -0.00033196437 -0.0035762 0.0039487705 0.0012057519 -0.002029007 0.0040254826 0.003035726 -0.0003873224 -0.0027131706 0.00024955385 -0.0038236496 0.0037272254 0.0020351098 -0.002199083 -0.0025436599 0.0028465465 -0.0003301814 6.7287605e-05 0.0013830406 -0.0007963537 -0.002725843 -0.0026833387 0.00035010363 -0.0017962484 0.0006192403 -0.0038805336 2.2439004e-05 0.0021318933 0.0009535851 0.00083662895 -0.0028432922 -0.0020640942 0.00011867556 0.0021411846 -0.0020419352 -0.0004828805 0.00090485474 -0.0005638309 -0.0023337111 0.0024981296 0.0010458487 -0.00092430506 -0.0044872602 0.00025429335 -0.0009261927 0.0004026481 -0.000582982 0.00068201695 -0.0019338897 -0.003387873 -0.0008428217 -0.0033155014 0.0027521446 -0.0028157118 0.0014763541 -0.003615566 0.0013435298 -0.0008106258 -0.0009921254 -0.00073339447 -0.0032816748 0.0009273066 0.0025699867 -0.0036314277 0.0016782486 -0.0042164847 0.00077217084 -0.0029518234 0.002583685 -0.0011442325 0.0012159079 0.0015348135 -0.00082613283 -0.003298133 0.0019103792 0.0005479774 -0.0026342373 -0.0007149921 -0.0016312988 0.0016758022 -0.0033699241 0.00013758305 -0.0023773783 -0.0019747026 -0.004328246 0.0027455362 0.00066093693 0.0009737179 0.00013001723 0.002363781 -0.003613697 -0.0010629704 0.0033433703 0.0026743193 0.0021898975 -0.0024177078 0.0037453624 -0.0024411944 0.004039786 0.0006706109 0.004816052 -0.00035251435 -0.002184743 -0.0026198076 0.0007835975 -0.0011468406 0.0029171312 0.0014639092 -0.0006616239 0.0024100656 0.0005997266 0.0018121646 0.0012358142 0.0003805025 -0.0014345767 -0.0022730632 -0.0021691266 0.0019041289 0.0004982856 -0.0006789129 0.00400498 -0.0042598355 0.0002664159 -0.0017858717 0.0024097338 -0.0026099307 -0.000834422
language-independent, -0.0016110817 0.0020500822 -0.00044776613 -0.00025266336 -0.0014721382 0.002981513 -0.0019338917 0.00024060578 -0.003691626 -0.0021432666 8.13388e-06 -0.0014838713 0.0010176356 0.0027377335 -0.00014926726 -0.0031491015 0.0021074454 0.002835845 0.00090964587 -0.0018530055 0.0029990722 0.0015367267 -0.001078206 0.003108519 0.0002958939 0.0013465426 0.0013487958 0.001377434 0.0002894109 -0.0021747379 -0.00027348488 0.001944487 -0.0007895711 -0.0035160389 0.0028521565 -0.0035809274 0.0013280627 0.00022605027 -0.0010445075 -0.0016612732 0.0032888078 -0.0025468206 -0.00083205465 -0.0014720573 -0.0022590004 -0.0016475663 0.003422445 0.0026889439 0.0028001396 0.0030213688 -0.00053868204 0.0031604087 0.0013654284 0.00046590646 -0.0035074102 0.0035880837 -0.0036305948 -0.001035147 -1.9729807e-05 0.002102687 0.0030054494 0.0010083375 -0.0015710265 -0.0032445476 0.0025811205 0.0029282232 0.0031307251 0.0033179978 -0.000618135 0.0037869478 0.0021509717 0.00063448056 -0.0024201362 -0.0009381471 0.001857829 0.001275944 -0.0021400317 9.553254e-05 0.00041982046 0.0033439086 -0.0020604928 -0.0038965794 -0.0001486628 -0.00087965024 0.001026387 0.0021744247 -0.0035708998 0.0030708842 0.004243962 0.0011537933 0.002320987 -0.0005880604 -0.0009596469 -0.0020939587 0.00088982395 0.0029121677 -0.0009808512 -0.0013168334 -0.0001357032 -0.0014538328 0.0035745625 0.0010926632 -0.002732792 -0.002109048 -0.0009751009 0.0022809547 -0.00021191765 0.00031963974 -0.0013027664 0.0023229055 -0.0032760021 -0.0036213498 0.0010532213 -0.0033296482 0.0016315592 -0.0012952292 -0.0005730773 0.0036739719 0.0023141718 -0.0013212006 0.003562016 -0.0022543953 -0.0021521018 -0.0030694117 -0.0028548916 0.0027741413 0.0029809724 0.0011541512
strings; 0.0028213942 0.0024612157 -0.0023308923 0.0008121582 0.001049242 -0.00032459167 0.0024191376 0.003027067 0.0023209846 -0.00082176295 0.000798565 0.0017480276 -0.0017765915 -0.0012040129 -0.0027691836 -0.0021043315 0.0014720708 -0.00033548535 -0.0023473017 0.00096998195 0.0020661363 -0.002673653 0.0032615939 0.0008230957 0.00017131923 -0.0009972722 0.0028315668 -0.0035000457 0.00083491736 -0.00026350317 0.0006527415 0.0034135587 -0.003734542 -0.0012788915 0.0010038455 -0.003341191 -0.00041342765 0.0007459819 0.0034954795 -9.864334e-05 -0.00231024 -0.0033818623 -0.0026532465 -0.0011334656 -0.0020240317 -0.00091016584 0.002953046 7.794969e-05 -0.0013103503 0.0013880326 -0.0012008124 0.0016247764 0.0003926015 -0.0043654214 0.0022364014 -0.0024312371 0.0027255819 0.0031875537 -0.002851434 -0.003768053 -0.0006617959 0.00014962065 0.0026419202 -0.000570123 -0.0009355058 0.0026428087 -0.003449089 0.0014885153 0.003712879 -0.0019086872 -0.0018691567 0.0034832987 -0.00050112756 -0.00017744998 0.0016399989 -0.001389299 0.0003484785 -0.0009209486 0.0001318064 0.00025481073 -0.00032579052 -0.0032539857 0.0016081341 0.00083339703 -0.003431623 0.0035743548 0.0026707218 0.0018531675 -0.0012427755 -0.00040768515 0.0015733799 -8.7958244e-05 -0.0014877362 -0.00059208437 -9.0051784e-05 0.0018807563 -0.0032881997 0.0024565258 0.00013046055 0.002580747 0.001729713 -0.0015512325 0.00051741046 -0.0005688067 0.0013633708 0.0038386988 0.00093671953 -0.0022932633 -0.00074937864 0.003279797 0.0009195416 -0.004066828 0.0024405846 0.0017113094 0.002970614 0.0034606257 0.0031841712 0.0034623663 0.0037072375 -0.001215234 -0.0033810826 -0.0024192168 -0.0027464547 0.0027275027 0.0021563743 0.0032837181 -0.00042350835 -0.00078459043
sorting -0.0016720929 -0.00040809106 -0.0039271535 0.0025117388 0.0032752564 -0.00038208594 0.0035317335 -0.0031979945 -0.0014707403 -0.0021674153 0.0030834754 0.0022318766 -0.0022737703 -0.0012062915 0.0023185527 -0.001705228 -0.002270247 -0.0016336129 0.0031866573 0.0014015211 0.0019736534 0.0028446242 -0.0012876685 0.0036672973 -0.0020687203 -0.00058872177 0.0028271056 0.0010162914 -0.0014293685 -0.0001946206 0.0010838341 -0.0016516835 -0.0033998725 0.00054715964 -0.003754407 0.0011085656 -0.0006737369 0.004092042 -0.0013249806 -0.0025621108 0.00048621368 0.0026343702 -0.0036524162 -0.0022936445 -0.0035302406 0.0007190871 0.0024396458 0.00289438 -0.0015392454 -0.0011998581 0.001274356 0.0020084002 -0.0037662797 0.00015047322 -0.0030140395 0.002954194 0.0030353817 0.001524376 -0.0021065238 0.0033105768 -0.0016495822 -0.00066861993 -0.003667954 -0.00017830606 0.0025744422 -0.0019679149 0.0017098883 0.0012180669 0.004453187 -0.0006331576 0.0026000405 0.002276237 -0.0021698184 -0.003605461 0.0029050447 0.0030573255 -0.0037678368 -0.0009874762 0.0021625771 -0.0016333575 0.0024489935 -0.0020970039 -0.0022587003 0.00021017998 0.00032408562 0.0035708523 0.0026414876 -4.9269052e-05 0.00065516296 0.0005224566 -0.0031036218 0.0005390947 -0.001106322 0.0015140406 0.0024597396 -0.00011366752 -0.00018203566 -0.00090438116 2.848301e-05 -0.0020346541 0.0005431248 0.00043036987 -0.0031313116 0.0016759268 0.0009865101 -0.00041062705 -0.0015689576 -0.002658996 0.0012886886 0.0004161503 -0.0020336984 0.002770125 0.00051139976 0.00031796517 -0.00088785903 0.003804425 0.0033621995 -0.0019445528 -0.0037037812 -0.00084976305 -0.00091613596 0.00010909595 -0.0028284867 -5.9543152e-05 0.0018847453 0.00373424 0.0019308834 0.0028068991
Protocol -0.00077796617 0.004020827 -0.0024939752 0.0037813801 -0.002761673 -0.0018925738 -0.00015430622 0.000976828 -0.0044829613 -0.0037895255 -0.0016698468 -0.0016928032 0.0036680307 -0.0020501153 0.00045897267 0.0025027033 -0.0029380715 -0.0019800153 0.00358092 0.000193031 -0.0026079866 0.0024725809 0.0014778073 -0.0012099231 -0.0024133194 0.0033168865 -0.0017463344 -0.0021914302 -0.0044676415 -0.0019962103 -0.0006714883 0.0014382715 -0.0039790855 -0.003941994 -0.0028284728 -0.0036046598 0.0035290793 -0.00084054517 0.002773553 -0.0031199504 0.002954868 0.0012069455 0.0017175454 -0.004204755 -0.00052892976 0.0011312732 -0.0007334537 0.0017464171 0.0021091152 -0.00037161759 0.00363149 0.0041527217 0.0003022379 -0.0017097197 0.00068402156 0.0013204089 -0.00035067476 -0.0012903194 -0.0029887042 -0.0027160712 0.0031560347 -0.0037792234 0.0027767054 0.0036528446 -0.00033471978 -0.0032753623 -0.00015116496 -0.0034719168 0.0017355967 -0.0024570255 -0.0012053949 0.0046957415 -0.0036150862 0.0026916035 0.0016708696 -0.0037574696 -0.0039736023 -0.0004079506 0.0011219019 -0.0014808727 0.0024344844 -0.003812543 -0.00029823408 -0.002234237 0.0032837563 0.0009069882 -0.0036941103 -0.0008807288 0.0011066346 -2.064507e-05 0.0006339679 -0.0009938445 -0.0042956057 0.0018295405 0.0011564969 0.0002036465 0.0021883198 -0.0033715037 -0.0011453796 0.0012616416 -0.0017213484 0.0017657585 -0.000939603 0.0012975631 -0.0029476047 0.0034922117 0.004119583 0.0045946864 -0.00075001305 -0.0006335815 0.0020541102 0.0028304653 -0.0032829423 0.003484421 0.00049511745 0.0026509268 -0.0024661466 0.0003192787 0.00034048816 -0.0019548177 -0.0036801982 0.0006553148 -0.0031739164 0.0030698415 0.00089618895 -0.0033198737 -0.002825185 -0.0032457283
Reference -8.644697e-05 -0.002787938 0.0008766474 0.004112873 -0.00234301 -0.0034363284 -0.000118869146 -0.0032753074 -0.0022685889 0.0011015432 0.0029464595 0.0028424815 0.0022541387 -0.0033262223 -0.0034378243 0.0012147635 -0.0007383915 -0.0024433227 0.00016821013 -0.0012843861 -0.001547058 0.0026483533 -0.0028149786 -0.002967591 0.0025972556 -0.0037113803 -0.00049417024 0.00044577091 0.0029973749 -0.0032524592 0.00044481803 -0.00074390526 -0.0019870906 -0.0005782199 0.00063406135 -0.0018943514 -0.0022235927 0.003993736 -0.0017144419 0.0002755495 0.0017382767 0.0043423465 -0.0020402463 -0.00026624167 0.00020793492 0.0026659204 -0.0038688502 0.0042134007 0.003423682 -0.0003376144 0.0032671846 -0.0013317326 8.472303e-06 -0.0020876545 -1.4836339e-06 -0.0011497787 0.0008178917 -0.0010732884 -0.0039936965 -0.00057162286 0.0013774971 -0.0032121723 0.0016099152 0.004506735 -0.0038366849 0.003280033 0.0020432828 0.002641794 0.0037112152 0.0027965994 0.0020425806 -0.0016905691 -0.0021952658 -0.0029561797 -0.0032696037 0.0024839588 -0.0046091224 0.0008020439 -0.0035493984 0.0035041668 -0.0038974993 -0.0011128412 -0.0033832758 0.0034503296 0.0027021237 -0.003482144 -0.00015347781 -0.00065750704 -0.0021921534 0.0034099 -0.0004405633 0.0023032224 -0.0013512729 -0.0020661324 0.00014172574 -0.0007372237 0.0017625674 0.0026260598 -0.0040920367 -0.0009447831 -0.0038846033 0.0017217535 -0.0034855232 0.0023061829 0.00343754 0.0010077113 0.0012716303 0.0025105528 -0.0034193601 -0.001406405 -0.000819592 0.00045018058 0.0025055015 0.0040228716 0.0032886772 -0.0019175708 0.0036661061 -0.0038328287 -0.0009380131 0.0030343456 7.86915e-05 8.05132e-05 0.0029655243 -0.0038610399 -0.0017199647 4.0028235e-06 -0.0015653049 -0.0039208257
Related 0.002906766 0.000115092276 0.0017192168 0.0011197894 -0.00021970196 0.0009632994 0.00053274137 -0.0034951367 -0.0022621516 -0.0030994718 -0.0026325157 0.00089874223 0.00092724204 -0.0023324087 0.0021113378 -0.0011529815 -0.00069147925 0.0038276825 0.002381533 0.0016877475 -0.0029428313 0.00045016012 -0.00041644508 -0.0031081717 -0.00075057644 0.0022688843 -0.0015422747 0.0031073005 -0.0036481046 0.001289108 0.0030733526 -0.00077275484 -0.00011813528 0.0008278058 0.002523863 -0.0015162985 -0.0013100881 0.0006785863 0.0036350435 0.0014382764 -0.0012462828 0.0025592058 0.0017997279 0.0020892345 -0.0013873884 -0.0023061798 0.0033464984 -0.0025636703 -0.0020644353 -0.0011076323 0.0007025047 -0.0030314953 0.00012279702 0.0022836395 -0.0038460314 -0.0011112682 -0.0012862538 -0.0002140832 -0.0019977777 -0.0029083255 -0.001761847 -0.0006951157 0.002011019 0.0020946334 0.0022543138 0.0001356314 0.0011991528 0.000811448 0.0029265727 -0.0027960637 -0.0014303804 -0.00081644097 -0.00084167585 0.002877985 -0.0008348358 -0.0031545276 -0.002664649 -0.0021789966 0.003228282 -0.0022864793 -0.002735765 -0.0006201132 -0.0011917069 -0.00070224685 -0.0011089366 0.0010359489 0.0031138707 -0.0015606792 0.0020702733 -0.0010838847 -0.0010932329 -0.0033816511 -0.00218256 -2.271765e-05 -0.0031472372 0.0013515187 -0.0006572625 -0.0018855948 -0.0017524147 -0.0019043585 -0.0027606906 0.002000363 0.00038841055 0.0022833224 0.0027976194 0.0022006405 0.00069396046 0.0030867278 0.00094748515 0.0027177627 0.00016285069 0.002323226 0.0007880798 -0.0019104914 -0.0034734933 0.0011102918 -0.0036368156 -0.0035878832 -0.0022142902 0.0031569116 -0.00028380475 0.00026143072 -0.002807337 0.003451671 0.0026947684 -0.0023302154 -0.0038276892 0.00050547865
interfaces: -0.0021773549 -0.0006383154 -0.0010541036 0.00046362923 -0.0037590133 -0.0011500696 -0.0034216568 0.0016728287 -0.0023753394 -0.00040330164 0.0024349573 -0.0019757603 0.0037936433 -0.0036963678 0.0022986375 0.0018314285 -0.00062007527 0.0006233323 0.0007704994 -0.0024812722 0.0007476613 -0.0017503619 0.0033088513 -0.0016826112 0.00071758544 0.0022519424 -0.003852102 -0.0023168204 0.0017989503 0.0033570298 -0.00061520975 0.0021484443 -4.837593e-05 0.0016342573 -0.0017781223 -0.0011507776 -0.0023771648 0.003883172 -0.0035948239 -0.0020400812 0.0032039762 -0.0017276574 0.0017052554 -0.0042793807 0.0027111277 0.003701185 0.00020949285 0.004272791 0.0037089633 -0.00043285615 -0.0013991159 -0.0014569768 -0.0016786618 0.0022160197 -0.001394522 0.00023921624 -0.0011187519 0.0007534653 -0.00023101615 -0.0015259904 0.0033838362 0.0016857109 -0.0033106313 -0.0016508672 0.0015914327 -0.0005376914 0.0028001645 0.0025099057 0.00035194273 0.0012435949 -0.0023044343 0.0010065164 -0.0019530705 -0.0043083495 0.0034309595 -0.0020194224 -0.0025738268 -0.0013640288 -0.00015063153 0.002230107 -0.0034598014 0.00016207449 -0.0005281302 0.0026430257 -0.00027931912 -3.829494e-05 0.000520154 -0.002837108 0.0005774586 0.0010952987 0.0017359259 0.0025290472 -0.0034718812 -0.0039047794 0.00010558554 -0.0022543666 0.00042803277 0.0020495967 -0.0020565642 -0.0019749273 -0.0031162787 0.004868912 -0.0029331897 -0.0013994452 0.002603885 -0.0027388202 -0.0024800433 0.0019942939 -0.00088949007 -0.00087595015 0.0031759543 -0.0037145354 0.00015340639 0.0008425823 -0.0041433065 -0.003299528 -0.002362872 -0.0024223172 0.0004819941 0.0032830883 -0.0008435006 0.0021903885 -0.0016771131 -0.00020920292 0.003160387 0.0019342945 0.00280498 -0.00092299416
sentences, -0.0026788358 0.00077354617 -7.648748e-05 -0.0013512791 0.002518471 -0.0043112747 0.0034654571 -0.0016146277 -0.0043027177 0.0025978335 -0.0041915406 -0.0036127965 0.003360042 -0.00028234583 -0.0006729241 0.0019193173 0.002411846 0.00057198334 -0.0007440881 0.0037108953 -0.0007774052 0.002470297 -0.0033534735 0.004471125 -0.0031938124 0.00363634 -0.004617793 0.0041659703 -0.0017946046 -0.0016042427 0.0019083315 -0.00017104034 -0.002785872 0.003600814 0.0015908844 0.0022564563 0.0022122036 0.0012981427 -0.0016397528 -0.0020072164 -0.0030247427 0.0013648063 0.0024190214 0.0022376918 0.0032937052 -0.0025050996 -0.0034328462 -0.00017171673 -0.0023465937 0.0015349563 0.0012583565 -0.002360334 -0.003588097 -0.0045034164 -0.0016647092 0.0038037542 -0.004285743 -0.0007338748 0.00073511497 -0.0026342026 -0.0044939 -0.0008330317 0.0006438092 -0.0024172852 0.002132855 -0.002631704 0.0011242613 -0.00095267675 -0.00038126705 0.0037388706 -0.001583803 0.0039496473 -0.000533797 -0.0032904362 0.002229123 0.0009056016 0.0027237814 -0.0016471301 0.00061152736 0.00015435914 0.0022312496 -0.0019136063 0.0013549161 -0.0039955648 -0.0024039263 0.001902809 -0.002760283 -0.0031448721 0.0016199927 -0.00060898025 0.00043732036 -0.0025628905 0.0024760498 4.7435733e-05 0.0031268757 0.0005887643 -0.0008841215 0.0035792042 -0.0036596437 -0.0019419125 -0.003410826 0.002172927 -0.0007010862 0.0029027276 0.00072860596 0.0009167649 0.00091062253 0.005200679 -0.0045482684 -0.0035628336 -0.0005307611 0.0017749098 -0.00030949613 0.0038855802 -0.002367528 -0.001991478 0.0026732776 0.0027261085 0.0012635747 -0.0006704877 0.00082193996 0.0044823983 -0.0006137359 0.0008419517 0.003049244 0.0017893286 -0.0019844673 0.0028923599
For 0.00016976551 0.0042575574 -0.004250619 0.003779994 -0.0011042443 -0.0035102388 -0.003175725 -0.0034809618 0.00045327857 -0.0012202876 0.0027982176 -0.00029927187 -0.0005361734 0.0013131853 0.0023432316 0.0031066742 0.0028924644 0.0037409745 0.004450959 -0.0029488294 0.002892714 -0.0027478382 0.0015201927 0.001826888 0.002114514 -0.002366344 0.001912869 0.00017570534 -0.003889534 -0.0005303872 -0.0008842947 0.002803888 0.0021531503 -0.00077748444 -0.002141953 0.0022613008 0.0011346645 0.002778247 -0.00270898 0.0027940588 0.0015421777 0.004076718 0.0017674228 0.0012182425 0.003577809 0.0024350444 0.00043014972 0.0029599713 -0.0028642477 -0.00026471796 0.004491846 -0.0020093923 0.0039486894 0.0017870548 0.0019002971 -0.0013361266 -0.0009730338 -0.00248894 -0.0033455272 -0.0012305265 0.0022398944 0.001644613 0.002660477 -0.00046841303 -0.0035611237 0.002248161 -0.0028201556 -0.0014472135 0.0024861472 -0.0020521604 -0.00061097345 -0.002388622 -0.003731757 -0.001835712 -0.00086471287 0.00080472033 0.00038484376 0.00390792 0.002715698 0.0022369423 -0.0047038896 -0.0029316756 -0.0006501407 0.0028939655 0.0026822295 -0.0045225755 -0.0019956208 0.0013166869 0.0038504023 0.00058027165 -0.00031797166 0.0017945496 -0.0035442554 -0.0017416083 -0.0036221147 -0.0014374857 0.00034684894 0.0043380605 -0.0026377814 -0.0001627969 0.001074744 -0.00011428051 -0.002134096 0.0033473861 0.00083982636 -0.0012968845 -0.0019238539 0.0031351065 -0.0034153054 -0.0010449053 -0.0001760257 -0.0024417713 0.0013048437 -0.0031513025 0.0013010958 0.0019216826 0.0038496898 -0.0030552822 0.0017396538 0.0010353202 0.0014451621 -0.0014602804 -0.0012939244 -0.0040290495 -0.0011355387 0.002636905 0.0030764183 0.0009690882
Specification -0.0020090244 0.0032200848 0.000994679 -0.000682584 0.001647878 -0.0035943603 -0.000300865 -0.00148675 0.0020982153 -0.0011019552 -0.0018809113 -0.0028153604 0.0002945985 -0.0027360949 0.0018311637 0.004374212 -0.00285522 -0.00042361426 0.00078256556 -0.00018435645 -0.0029802725 0.0028962658 0.0018762816 0.00064251776 -0.0023625456 -0.0029377951 -9.3466995e-05 0.003975003 0.0020303202 0.001591235 0.0011512166 -0.0034093268 0.0012713235 -0.0013857058 0.0005020618 0.0021829617 -0.00014239151 0.0033690443 -0.00038817263 0.0022263217 0.00027870666 -0.0026548814 0.0018652003 -0.0018267663 -0.0032867324 -6.956744e-05 -0.0023561637 0.00056454964 0.00062170933 0.00039613427 0.0028540313 0.0013129882 0.0037187524 0.0027593921 0.0035478575 -0.003812048 -0.001876233 0.0025918493 0.0011773055 -0.0030643228 0.0003589369 -0.0036894055 -0.0022256419 -6.372719e-05 -0.0035968735 0.00032221366 -0.0026728506 0.002792815 -0.0014722919 0.0012428337 -0.0029373243 0.0020049063 0.0022891401 -0.00399098 0.0034623086 0.0029955506 -0.0014917692 0.00028201233 0.0014938557 0.003558406 -0.0003552945 -0.0011165306 0.0005944326 -0.0007297401 -0.001587615 -0.0024804506 0.00029919943 0.002110192 0.002952817 -0.00092923286 -0.0036395723 -0.0031875623 -0.003519439 0.002094154 -0.0031238145 0.0010102299 0.0036617112 -0.0026034315 -0.0018364633 0.0013921214 0.0019928794 -0.0020119345 -0.0006367004 0.0016910132 -0.0039296565 0.0021265931 -0.0018390069 0.0031441648 0.0029001888 0.00095535885 0.0006574864 -0.0018342643 0.0016632929 0.003535528 -0.001946759 0.0018011505 0.00091567833 -0.0008516543 0.0016841387 0.002473078 -0.0030045183 0.0033995057 0.0004785443 -0.0015970706 -0.0028214597 0.0012790671 0.0011249471 -0.0040801694
searching 0.003636492 -0.0012419823 -0.0045227623 0.0033824728 -0.0036641234 -0.0015395258 0.0018927939 -0.0033197128 -0.0032009447 -9.1929105e-05 -0.0014316484 0.0003196668 -0.0033076983 -0.003784976 0.0005108705 0.003081507 0.0028187574 0.003389682 -0.0032092722 -0.0011940082 0.00016394611 0.0012703529 -0.0024926667 -0.0010418511 -0.002030552 2.6065647e-06 0.0020582315 0.00075921364 0.0030478372 0.00030601528 0.00080904184 -0.0011800561 0.0030544014 0.0009461304 0.0023157392 0.0029250546 -0.003704923 0.003952286 -0.0032884812 0.0015848498 0.0015796581 0.0007822207 -0.0016201474 0.0027043566 -0.0012413563 0.0020716048 0.0009602682 -0.0026626599 -0.00013605652 0.0032138738 -0.0021547314 0.0035918772 -0.000916644 -0.0026487117 0.0020112866 0.00014464057 0.001420642 -0.0021857019 -0.0016015562 0.0032632763 -0.0007136327 -0.004032201 0.003161201 0.00215338 -0.00028408197 0.00068485254 -7.8294404e-05 -2.2648439e-05 0.0011271664 -0.0037995789 -0.0031562375 0.0031657536 -0.002754342 -0.0037563483 -0.0017879748 -0.00118091 -0.0025968617 0.0019376143 -0.0036734196 0.0036492117 0.0026751962 0.003298692 -0.0009768356 -0.00046349526 0.0006323086 -0.0015299392 -0.000772688 0.0023889155 0.0040225615 0.00019911071 -0.0017139666 -0.0025773272 0.0029199996 -0.0030108937 -0.0021841219 0.0018927947 0.0037544472 -0.0013709638 -0.0013186109 0.002341106 -0.0012266277 -0.0023378073 0.0030565562 0.00039416208 0.0025250313 0.0016555082 0.00078476715 0.004944163 -0.00033556166 -1.857226e-05 0.003909193 0.0008216367 -0.00337181 0.0019798707 -0.0030695547 0.0021999013 -0.0012252625 9.790233e-05 0.0017016553 -0.0001375053 -0.00061530096 0.0027213243 -0.0013908161 -0.0014369359 -0.0020771783 0.0035090828 -0.0024960518 0.0025900225
are -7.03462e-05 0.0031296602 -0.0030478488 -0.0010372277 -0.0016925387 -0.002032118 0.0017751091 0.0026203159 -0.004033835 0.0032970277 0.000533578 -0.0037926952 0.0018478901 -0.0025495072 -0.0023776488 -0.0032815996 -0.0017472489 0.0019125307 0.0024408496 0.0020775779 -0.0015432003 0.0014522009 0.000684771 0.00026515414 0.0031239393 0.0029967322 -3.771035e-05 0.0041461177 0.002643932 -0.0029695728 -0.0021666433 0.00010717109 -0.0009065255 -0.0022126017 -0.0034553523 -0.00090283185 -0.0012418336 -0.0012774379 0.0013619058 0.0005846446 -0.0031058004 -0.002334932 -0.00014239167 -0.0031303198 0.0036533119 -0.0025496152 -0.00044837667 -0.002160778 -0.002224608 0.0011282682 -0.0033524644 -0.0004988449 -0.0033944973 2.0152058e-05 -0.001045699 0.0009838386 0.0024071261 -0.00029626873 0.0030090343 0.0029868605 -0.003256949 0.0029070461 -0.0036981103 0.0018160081 0.0013319972 -0.0022283236 -0.00076462055 -0.0017921923 0.0005001125 0.00235491 -0.0022894854 -0.00063347473 0.001988497 -0.0023414863 -0.0034970471 -0.0010568302 0.001290878 0.0007105829 0.0007120198 0.0032322083 -0.0016739102 0.0013881951 0.0024671003 -0.000294884 -0.0026777808 0.0010517554 -0.0031414467 -0.0014120607 0.0039843633 -0.003591881 -0.0035662958 -7.858167e-05 0.00052253413 -0.00054848415 0.000118220836 0.0028990984 0.00024207136 -0.0020864238 8.391848e-05 -0.0034299793 -0.002120223 0.0044417055 -0.002666002 -0.003632224 3.465803e-05 -0.0014547795 0.0017081569 0.00096748816 -0.0019021359 0.0029073528 -0.001526553 0.0006182839 -0.001912244 0.0031369962 -0.00043299075 0.0009989614 -0.0026890577 0.002944883 0.0011207057 -0.00066836027 -0.0005880195 0.0028876297 -0.0010897286 0.002045128 0.002461625 -0.0024078735 -0.0039368067 -0.0013714369
5280: 0.0018558736 0.0036723479 -0.0013796343 0.0013755091 -0.0022529315 -0.0004310759 -0.002883844 -0.0010776749 0.0027761012 0.0024577642 -0.0028264944 0.002965095 0.0015180002 -0.0008033309 -0.0012092991 -0.00089618925 6.382315e-05 0.0037567583 0.0034653696 0.002636142 0.0041035647 -9.895884e-05 0.0025066712 0.0020318201 8.2259474e-05 -0.0013842179 -0.000820355 -0.00288361 -0.0025985849 -0.0013445212 0.0018187593 0.0005558545 0.00089388294 0.0017952592 0.0024358537 -0.00109721 -0.0018481432 -0.001957732 -0.002162724 0.0032908937 0.0017969649 -0.0035429804 0.0030132392 -0.0017456244 -0.0032956852 0.003128494 -0.0015369459 -0.0023427443 -0.003001024 -0.0022836186 -0.00015453456 -0.0007613371 0.0031251637 -0.0024111124 -0.00063834223 0.0019840216 0.0031188047 -0.0015327823 -0.0029187142 0.0021045157 -0.003615573 -0.0023594731 0.0012708331 0.0016908491 -0.00024202657 0.0017613692 -8.8835295e-05 -0.0030696793 0.0015138717 0.0019932727 -0.0037016647 0.0025498855 0.0018304538 -0.0014515978 -0.003779609 0.0006775703 0.0008949524 -0.0031917219 0.0005857177 0.003530862 0.0014566826 0.0024027994 0.00057734054 -0.00015146316 -0.0010222816 0.0015831831 0.0014893553 0.0013375942 0.0026282843 -0.0027752423 -0.0026296584 0.0022020673 1.0058801e-05 0.0007463789 0.0024286855 -0.00013527952 -0.0024824431 0.0018276602 -0.00084271183 0.00342571 0.0030519676 -0.0030665158 -0.0028920667 -0.0036556895 -0.002837762 0.003009389 -0.0027080234 0.004079574 0.0028478946 0.0035705518 -0.0023062716 -0.001383515 -0.0028172173 -0.00017661494 -0.003889914 -0.0006363098 -0.0021198667 0.0014701887 0.0018587721 0.002244982 0.00018424756 0.0009241227 -0.0019398395 -0.0016375335 0.001347734 0.0005894339 -0.0023004452 -0.0003344285
